{"learner":{"attributes":{"scikit_learn":"{\"_estimator_type\": \"regressor\"}"},"feature_names":["name","_cell_length_a","_cell_length_b","_cell_length_c","_cell_angle_alpha","_cell_angle_beta","_cell_angle_gamma","lcd","pld","void_fraction","surface_area_m2g","surface_area_m2cm3","number_H","number_C","number_N","number_O","number_F","number_Cl","number_V","number_Cu","number_Zn","number_Br","number_Zr"],"feature_types":["float","float","float","float","float","float","float","float","float","float","float","float","float","float","float","float","float","float","float","float","float","float","float"],"gradient_booster":{"model":{"gbtree_model_param":{"num_parallel_tree":"1","num_trees":"2000"},"iteration_indptr":[0,1,2,3,4,5,6,7,8,9,10,11,12,13,14,15,16,17,18,19,20,21,22,23,24,25,26,27,28,29,30,31,32,33,34,35,36,37,38,39,40,41,42,43,44,45,46,47,48,49,50,51,52,53,54,55,56,57,58,59,60,61,62,63,64,65,66,67,68,69,70,71,72,73,74,75,76,77,78,79,80,81,82,83,84,85,86,87,88,89,90,91,92,93,94,95,96,97,98,99,100,101,102,103,104,105,106,107,108,109,110,111,112,113,114,115,116,117,118,119,120,121,122,123,124,125,126,127,128,129,130,131,132,133,134,135,136,137,138,139,140,141,142,143,144,145,146,147,148,149,150,151,152,153,154,155,156,157,158,159,160,161,162,163,164,165,166,167,168,169,170,171,172,173,174,175,176,177,178,179,180,181,182,183,184,185,186,187,188,189,190,191,192,193,194,195,196,197,198,199,200,201,202,203,204,205,206,207,208,209,210,211,212,213,214,215,216,217,218,219,220,221,222,223,224,225,226,227,228,229,230,231,232,233,234,235,236,237,238,239,240,241,242,243,244,245,246,247,248,249,250,251,252,253,254,255,256,257,258,259,260,261,262,263,264,265,266,267,268,269,270,271,272,273,274,275,276,277,278,279,280,281,282,283,284,285,286,287,288,289,290,291,292,293,294,295,296,297,298,299,300,301,302,303,304,305,306,307,308,309,310,311,312,313,314,315,316,317,318,319,320,321,322,323,324,325,326,327,328,329,330,331,332,333,334,335,336,337,338,339,340,341,342,343,344,345,346,347,348,349,350,351,352,353,354,355,356,357,358,359,360,361,362,363,364,365,366,367,368,369,370,371,372,373,374,375,376,377,378,379,380,381,382,383,384,385,386,387,388,389,390,391,392,393,394,395,396,397,398,399,400,401,402,403,404,405,406,407,408,409,410,411,412,413,414,415,416,417,418,419,420,421,422,423,424,425,426,427,428,429,430,431,432,433,434,435,436,437,438,439,440,441,442,443,444,445,446,447,448,449,450,451,452,453,454,455,456,457,458,459,460,461,462,463,464,465,466,467,468,469,470,471,472,473,474,475,476,477,478,479,480,481,482,483,484,485,486,487,488,489,490,491,492,493,494,495,496,497,498,499,500,501,502,503,504,505,506,507,508,509,510,511,512,513,514,515,516,517,518,519,520,521,522,523,524,525,526,527,528,529,530,531,532,533,534,535,536,537,538,539,540,541,542,543,544,545,546,547,548,549,550,551,552,553,554,555,556,557,558,559,560,561,562,563,564,565,566,567,568,569,570,571,572,573,574,575,576,577,578,579,580,581,582,583,584,585,586,587,588,589,590,591,592,593,594,595,596,597,598,599,600,601,602,603,604,605,606,607,608,609,610,611,612,613,614,615,616,617,618,619,620,621,622,623,624,625,626,627,628,629,630,631,632,633,634,635,636,637,638,639,640,641,642,643,644,645,646,647,648,649,650,651,652,653,654,655,656,657,658,659,660,661,662,663,664,665,666,667,668,669,670,671,672,673,674,675,676,677,678,679,680,681,682,683,684,685,686,687,688,689,690,691,692,693,694,695,696,697,698,699,700,701,702,703,704,705,706,707,708,709,710,711,712,713,714,715,716,717,718,719,720,721,722,723,724,725,726,727,728,729,730,731,732,733,734,735,736,737,738,739,740,741,742,743,744,745,746,747,748,749,750,751,752,753,754,755,756,757,758,759,760,761,762,763,764,765,766,767,768,769,770,771,772,773,774,775,776,777,778,779,780,781,782,783,784,785,786,787,788,789,790,791,792,793,794,795,796,797,798,799,800,801,802,803,804,805,806,807,808,809,810,811,812,813,814,815,816,817,818,819,820,821,822,823,824,825,826,827,828,829,830,831,832,833,834,835,836,837,838,839,840,841,842,843,844,845,846,847,848,849,850,851,852,853,854,855,856,857,858,859,860,861,862,863,864,865,866,867,868,869,870,871,872,873,874,875,876,877,878,879,880,881,882,883,884,885,886,887,888,889,890,891,892,893,894,895,896,897,898,899,900,901,902,903,904,905,906,907,908,909,910,911,912,913,914,915,916,917,918,919,920,921,922,923,924,925,926,927,928,929,930,931,932,933,934,935,936,937,938,939,940,941,942,943,944,945,946,947,948,949,950,951,952,953,954,955,956,957,958,959,960,961,962,963,964,965,966,967,968,969,970,971,972,973,974,975,976,977,978,979,980,981,982,983,984,985,986,987,988,989,990,991,992,993,994,995,996,997,998,999,1000,1001,1002,1003,1004,1005,1006,1007,1008,1009,1010,1011,1012,1013,1014,1015,1016,1017,1018,1019,1020,1021,1022,1023,1024,1025,1026,1027,1028,1029,1030,1031,1032,1033,1034,1035,1036,1037,1038,1039,1040,1041,1042,1043,1044,1045,1046,1047,1048,1049,1050,1051,1052,1053,1054,1055,1056,1057,1058,1059,1060,1061,1062,1063,1064,1065,1066,1067,1068,1069,1070,1071,1072,1073,1074,1075,1076,1077,1078,1079,1080,1081,1082,1083,1084,1085,1086,1087,1088,1089,1090,1091,1092,1093,1094,1095,1096,1097,1098,1099,1100,1101,1102,1103,1104,1105,1106,1107,1108,1109,1110,1111,1112,1113,1114,1115,1116,1117,1118,1119,1120,1121,1122,1123,1124,1125,1126,1127,1128,1129,1130,1131,1132,1133,1134,1135,1136,1137,1138,1139,1140,1141,1142,1143,1144,1145,1146,1147,1148,1149,1150,1151,1152,1153,1154,1155,1156,1157,1158,1159,1160,1161,1162,1163,1164,1165,1166,1167,1168,1169,1170,1171,1172,1173,1174,1175,1176,1177,1178,1179,1180,1181,1182,1183,1184,1185,1186,1187,1188,1189,1190,1191,1192,1193,1194,1195,1196,1197,1198,1199,1200,1201,1202,1203,1204,1205,1206,1207,1208,1209,1210,1211,1212,1213,1214,1215,1216,1217,1218,1219,1220,1221,1222,1223,1224,1225,1226,1227,1228,1229,1230,1231,1232,1233,1234,1235,1236,1237,1238,1239,1240,1241,1242,1243,1244,1245,1246,1247,1248,1249,1250,1251,1252,1253,1254,1255,1256,1257,1258,1259,1260,1261,1262,1263,1264,1265,1266,1267,1268,1269,1270,1271,1272,1273,1274,1275,1276,1277,1278,1279,1280,1281,1282,1283,1284,1285,1286,1287,1288,1289,1290,1291,1292,1293,1294,1295,1296,1297,1298,1299,1300,1301,1302,1303,1304,1305,1306,1307,1308,1309,1310,1311,1312,1313,1314,1315,1316,1317,1318,1319,1320,1321,1322,1323,1324,1325,1326,1327,1328,1329,1330,1331,1332,1333,1334,1335,1336,1337,1338,1339,1340,1341,1342,1343,1344,1345,1346,1347,1348,1349,1350,1351,1352,1353,1354,1355,1356,1357,1358,1359,1360,1361,1362,1363,1364,1365,1366,1367,1368,1369,1370,1371,1372,1373,1374,1375,1376,1377,1378,1379,1380,1381,1382,1383,1384,1385,1386,1387,1388,1389,1390,1391,1392,1393,1394,1395,1396,1397,1398,1399,1400,1401,1402,1403,1404,1405,1406,1407,1408,1409,1410,1411,1412,1413,1414,1415,1416,1417,1418,1419,1420,1421,1422,1423,1424,1425,1426,1427,1428,1429,1430,1431,1432,1433,1434,1435,1436,1437,1438,1439,1440,1441,1442,1443,1444,1445,1446,1447,1448,1449,1450,1451,1452,1453,1454,1455,1456,1457,1458,1459,1460,1461,1462,1463,1464,1465,1466,1467,1468,1469,1470,1471,1472,1473,1474,1475,1476,1477,1478,1479,1480,1481,1482,1483,1484,1485,1486,1487,1488,1489,1490,1491,1492,1493,1494,1495,1496,1497,1498,1499,1500,1501,1502,1503,1504,1505,1506,1507,1508,1509,1510,1511,1512,1513,1514,1515,1516,1517,1518,1519,1520,1521,1522,1523,1524,1525,1526,1527,1528,1529,1530,1531,1532,1533,1534,1535,1536,1537,1538,1539,1540,1541,1542,1543,1544,1545,1546,1547,1548,1549,1550,1551,1552,1553,1554,1555,1556,1557,1558,1559,1560,1561,1562,1563,1564,1565,1566,1567,1568,1569,1570,1571,1572,1573,1574,1575,1576,1577,1578,1579,1580,1581,1582,1583,1584,1585,1586,1587,1588,1589,1590,1591,1592,1593,1594,1595,1596,1597,1598,1599,1600,1601,1602,1603,1604,1605,1606,1607,1608,1609,1610,1611,1612,1613,1614,1615,1616,1617,1618,1619,1620,1621,1622,1623,1624,1625,1626,1627,1628,1629,1630,1631,1632,1633,1634,1635,1636,1637,1638,1639,1640,1641,1642,1643,1644,1645,1646,1647,1648,1649,1650,1651,1652,1653,1654,1655,1656,1657,1658,1659,1660,1661,1662,1663,1664,1665,1666,1667,1668,1669,1670,1671,1672,1673,1674,1675,1676,1677,1678,1679,1680,1681,1682,1683,1684,1685,1686,1687,1688,1689,1690,1691,1692,1693,1694,1695,1696,1697,1698,1699,1700,1701,1702,1703,1704,1705,1706,1707,1708,1709,1710,1711,1712,1713,1714,1715,1716,1717,1718,1719,1720,1721,1722,1723,1724,1725,1726,1727,1728,1729,1730,1731,1732,1733,1734,1735,1736,1737,1738,1739,1740,1741,1742,1743,1744,1745,1746,1747,1748,1749,1750,1751,1752,1753,1754,1755,1756,1757,1758,1759,1760,1761,1762,1763,1764,1765,1766,1767,1768,1769,1770,1771,1772,1773,1774,1775,1776,1777,1778,1779,1780,1781,1782,1783,1784,1785,1786,1787,1788,1789,1790,1791,1792,1793,1794,1795,1796,1797,1798,1799,1800,1801,1802,1803,1804,1805,1806,1807,1808,1809,1810,1811,1812,1813,1814,1815,1816,1817,1818,1819,1820,1821,1822,1823,1824,1825,1826,1827,1828,1829,1830,1831,1832,1833,1834,1835,1836,1837,1838,1839,1840,1841,1842,1843,1844,1845,1846,1847,1848,1849,1850,1851,1852,1853,1854,1855,1856,1857,1858,1859,1860,1861,1862,1863,1864,1865,1866,1867,1868,1869,1870,1871,1872,1873,1874,1875,1876,1877,1878,1879,1880,1881,1882,1883,1884,1885,1886,1887,1888,1889,1890,1891,1892,1893,1894,1895,1896,1897,1898,1899,1900,1901,1902,1903,1904,1905,1906,1907,1908,1909,1910,1911,1912,1913,1914,1915,1916,1917,1918,1919,1920,1921,1922,1923,1924,1925,1926,1927,1928,1929,1930,1931,1932,1933,1934,1935,1936,1937,1938,1939,1940,1941,1942,1943,1944,1945,1946,1947,1948,1949,1950,1951,1952,1953,1954,1955,1956,1957,1958,1959,1960,1961,1962,1963,1964,1965,1966,1967,1968,1969,1970,1971,1972,1973,1974,1975,1976,1977,1978,1979,1980,1981,1982,1983,1984,1985,1986,1987,1988,1989,1990,1991,1992,1993,1994,1995,1996,1997,1998,1999,2000],"tree_info":[0,0,0,0,0,0,0,0,0,0,0,0,0,0,0,0,0,0,0,0,0,0,0,0,0,0,0,0,0,0,0,0,0,0,0,0,0,0,0,0,0,0,0,0,0,0,0,0,0,0,0,0,0,0,0,0,0,0,0,0,0,0,0,0,0,0,0,0,0,0,0,0,0,0,0,0,0,0,0,0,0,0,0,0,0,0,0,0,0,0,0,0,0,0,0,0,0,0,0,0,0,0,0,0,0,0,0,0,0,0,0,0,0,0,0,0,0,0,0,0,0,0,0,0,0,0,0,0,0,0,0,0,0,0,0,0,0,0,0,0,0,0,0,0,0,0,0,0,0,0,0,0,0,0,0,0,0,0,0,0,0,0,0,0,0,0,0,0,0,0,0,0,0,0,0,0,0,0,0,0,0,0,0,0,0,0,0,0,0,0,0,0,0,0,0,0,0,0,0,0,0,0,0,0,0,0,0,0,0,0,0,0,0,0,0,0,0,0,0,0,0,0,0,0,0,0,0,0,0,0,0,0,0,0,0,0,0,0,0,0,0,0,0,0,0,0,0,0,0,0,0,0,0,0,0,0,0,0,0,0,0,0,0,0,0,0,0,0,0,0,0,0,0,0,0,0,0,0,0,0,0,0,0,0,0,0,0,0,0,0,0,0,0,0,0,0,0,0,0,0,0,0,0,0,0,0,0,0,0,0,0,0,0,0,0,0,0,0,0,0,0,0,0,0,0,0,0,0,0,0,0,0,0,0,0,0,0,0,0,0,0,0,0,0,0,0,0,0,0,0,0,0,0,0,0,0,0,0,0,0,0,0,0,0,0,0,0,0,0,0,0,0,0,0,0,0,0,0,0,0,0,0,0,0,0,0,0,0,0,0,0,0,0,0,0,0,0,0,0,0,0,0,0,0,0,0,0,0,0,0,0,0,0,0,0,0,0,0,0,0,0,0,0,0,0,0,0,0,0,0,0,0,0,0,0,0,0,0,0,0,0,0,0,0,0,0,0,0,0,0,0,0,0,0,0,0,0,0,0,0,0,0,0,0,0,0,0,0,0,0,0,0,0,0,0,0,0,0,0,0,0,0,0,0,0,0,0,0,0,0,0,0,0,0,0,0,0,0,0,0,0,0,0,0,0,0,0,0,0,0,0,0,0,0,0,0,0,0,0,0,0,0,0,0,0,0,0,0,0,0,0,0,0,0,0,0,0,0,0,0,0,0,0,0,0,0,0,0,0,0,0,0,0,0,0,0,0,0,0,0,0,0,0,0,0,0,0,0,0,0,0,0,0,0,0,0,0,0,0,0,0,0,0,0,0,0,0,0,0,0,0,0,0,0,0,0,0,0,0,0,0,0,0,0,0,0,0,0,0,0,0,0,0,0,0,0,0,0,0,0,0,0,0,0,0,0,0,0,0,0,0,0,0,0,0,0,0,0,0,0,0,0,0,0,0,0,0,0,0,0,0,0,0,0,0,0,0,0,0,0,0,0,0,0,0,0,0,0,0,0,0,0,0,0,0,0,0,0,0,0,0,0,0,0,0,0,0,0,0,0,0,0,0,0,0,0,0,0,0,0,0,0,0,0,0,0,0,0,0,0,0,0,0,0,0,0,0,0,0,0,0,0,0,0,0,0,0,0,0,0,0,0,0,0,0,0,0,0,0,0,0,0,0,0,0,0,0,0,0,0,0,0,0,0,0,0,0,0,0,0,0,0,0,0,0,0,0,0,0,0,0,0,0,0,0,0,0,0,0,0,0,0,0,0,0,0,0,0,0,0,0,0,0,0,0,0,0,0,0,0,0,0,0,0,0,0,0,0,0,0,0,0,0,0,0,0,0,0,0,0,0,0,0,0,0,0,0,0,0,0,0,0,0,0,0,0,0,0,0,0,0,0,0,0,0,0,0,0,0,0,0,0,0,0,0,0,0,0,0,0,0,0,0,0,0,0,0,0,0,0,0,0,0,0,0,0,0,0,0,0,0,0,0,0,0,0,0,0,0,0,0,0,0,0,0,0,0,0,0,0,0,0,0,0,0,0,0,0,0,0,0,0,0,0,0,0,0,0,0,0,0,0,0,0,0,0,0,0,0,0,0,0,0,0,0,0,0,0,0,0,0,0,0,0,0,0,0,0,0,0,0,0,0,0,0,0,0,0,0,0,0,0,0,0,0,0,0,0,0,0,0,0,0,0,0,0,0,0,0,0,0,0,0,0,0,0,0,0,0,0,0,0,0,0,0,0,0,0,0,0,0,0,0,0,0,0,0,0,0,0,0,0,0,0,0,0,0,0,0,0,0,0,0,0,0,0,0,0,0,0,0,0,0,0,0,0,0,0,0,0,0,0,0,0,0,0,0,0,0,0,0,0,0,0,0,0,0,0,0,0,0,0,0,0,0,0,0,0,0,0,0,0,0,0,0,0,0,0,0,0,0,0,0,0,0,0,0,0,0,0,0,0,0,0,0,0,0,0,0,0,0,0,0,0,0,0,0,0,0,0,0,0,0,0,0,0,0,0,0,0,0,0,0,0,0,0,0,0,0,0,0,0,0,0,0,0,0,0,0,0,0,0,0,0,0,0,0,0,0,0,0,0,0,0,0,0,0,0,0,0,0,0,0,0,0,0,0,0,0,0,0,0,0,0,0,0,0,0,0,0,0,0,0,0,0,0,0,0,0,0,0,0,0,0,0,0,0,0,0,0,0,0,0,0,0,0,0,0,0,0,0,0,0,0,0,0,0,0,0,0,0,0,0,0,0,0,0,0,0,0,0,0,0,0,0,0,0,0,0,0,0,0,0,0,0,0,0,0,0,0,0,0,0,0,0,0,0,0,0,0,0,0,0,0,0,0,0,0,0,0,0,0,0,0,0,0,0,0,0,0,0,0,0,0,0,0,0,0,0,0,0,0,0,0,0,0,0,0,0,0,0,0,0,0,0,0,0,0,0,0,0,0,0,0,0,0,0,0,0,0,0,0,0,0,0,0,0,0,0,0,0,0,0,0,0,0,0,0,0,0,0,0,0,0,0,0,0,0,0,0,0,0,0,0,0,0,0,0,0,0,0,0,0,0,0,0,0,0,0,0,0,0,0,0,0,0,0,0,0,0,0,0,0,0,0,0,0,0,0,0,0,0,0,0,0,0,0,0,0,0,0,0,0,0,0,0,0,0,0,0,0,0,0,0,0,0,0,0,0,0,0,0,0,0,0,0,0,0,0,0,0,0,0,0,0,0,0,0,0,0,0,0,0,0,0,0,0,0,0,0,0,0,0,0,0,0,0,0,0,0,0,0,0,0,0,0,0,0,0,0,0,0,0,0,0,0,0,0,0,0,0,0,0,0,0,0,0,0,0,0,0,0,0,0,0,0,0,0,0,0,0,0,0,0,0,0,0,0,0,0,0,0,0,0,0,0,0,0,0,0,0,0,0,0,0,0,0,0,0,0,0,0,0,0,0,0,0,0,0,0,0,0,0,0,0,0,0,0,0,0,0,0,0,0,0,0,0,0,0,0,0,0,0,0,0,0,0,0,0,0,0,0,0,0,0,0,0,0,0,0,0,0,0,0,0,0,0,0,0,0,0,0,0,0,0,0,0,0,0,0,0,0,0,0,0,0,0,0,0,0,0,0,0,0,0,0,0,0,0,0,0,0,0,0,0,0,0,0,0,0,0,0,0,0,0,0,0,0,0,0,0,0,0,0,0,0,0,0,0,0,0,0,0,0,0,0,0,0,0,0,0,0,0,0,0,0,0,0,0,0,0,0,0,0,0,0,0,0,0,0,0,0,0,0,0,0,0,0,0,0,0,0,0,0,0,0,0,0,0,0,0,0,0,0,0,0,0,0,0,0,0,0,0,0,0,0,0,0,0,0,0,0,0,0,0,0,0,0,0,0,0,0,0,0,0,0,0,0,0,0,0,0,0,0,0,0,0,0,0,0,0,0,0,0,0,0,0,0,0,0,0,0,0,0,0,0,0,0,0,0,0,0,0,0,0,0,0,0,0,0,0,0,0,0,0,0,0,0,0,0,0,0,0,0,0,0,0,0,0,0,0,0,0,0,0,0,0,0,0,0,0,0,0,0,0,0,0,0,0,0,0,0,0,0,0,0,0,0,0,0,0,0,0,0,0,0,0,0,0,0,0,0,0,0,0,0,0,0,0,0,0,0,0,0,0,0,0,0,0,0,0,0,0,0,0,0,0,0,0,0,0,0,0,0,0,0,0,0,0,0,0,0,0,0,0,0,0,0,0,0,0,0,0,0,0,0,0,0,0,0,0,0,0,0,0,0,0,0,0,0,0,0,0,0,0,0,0,0,0,0,0,0,0,0,0,0,0,0,0,0,0,0,0,0,0,0,0,0,0,0,0,0,0,0,0,0,0,0,0,0,0,0,0,0,0,0,0,0,0,0,0,0,0,0,0,0,0,0,0,0,0,0,0,0,0,0,0,0,0,0,0,0,0,0,0,0,0,0,0,0,0,0,0,0,0,0,0,0,0,0],"trees":[{"base_weights":[3.8975808E-3,1.528656E-1,-2.4923341E-1,-6.301463E-1,2.618354E-1,-3.3327824E-1,-6.561131E-2,-7.8398186E-1,-2.7593434E-1,1.03656396E-1,4.5143816E-1,-1.0830178E-1,-3.6687702E-1,7.5961225E-2,-2.1855186E-1,-2.8382175E-2,-0E0,-3.4927845E-1,-1.9539176E-3,2.685333E-1,-1.3165701E-2,5.068554E-1,9.175972E-2,-6.0276496E-3,2.912816E-3,-3.7686527E-1,1.2659401E-3,-8.190106E-2,1.4237942E-1,-1.4330456E-2,-1.3321255E-1,-0E0,-1.3200299E-2,3.4338352E-1,1.5804566E-2,-2.0345199E-1,7.913712E-2,2.3853163E-1,5.3573847E-1,-2.5954877E-3,1.7495067E-1,-4.364216E-1,-2.965149E-1,-5.207473E-3,2.2531727E-3,6.537728E-3,3.1006333E-4,-6.505892E-3,-2.3948796E-4,-4.0700044E-3,1.3282675E-2,-3.0091053E-3,4.0378594E-3,2.9464127E-3,-9.223066E-3,6.5886932E-3,-3.13087E-3,1.1444119E-2,4.0686954E-4,7.339786E-3,1.9415598E-2,8.018146E-3,-3.351174E-3,-1.6226012E-2,-7.642743E-3,-1.4505286E-3,-1.0882798E-2],"categories":[],"categories_nodes":[],"categories_segments":[],"categories_sizes":[],"default_left":[0,0,0,0,0,0,0,0,0,0,0,0,0,0,0,0,0,0,0,0,0,0,0,0,0,0,0,0,0,0,0,0,0,0,0,0,0,0,0,0,0,0,0,0,0,0,0,0,0,0,0,0,0,0,0,0,0,0,0,0,0,0,0,0,0,0,0],"id":0,"left_children":[1,3,5,7,9,11,13,15,17,19,21,23,25,27,29,-1,-1,31,-1,33,35,37,39,-1,-1,41,-1,43,45,-1,47,-1,-1,49,51,53,55,57,59,-1,61,63,65,-1,-1,-1,-1,-1,-1,-1,-1,-1,-1,-1,-1,-1,-1,-1,-1,-1,-1,-1,-1,-1,-1,-1,-1],"loss_changes":[2.4086634E1,3.4553833E1,3.577094E0,2.2667923E0,1.0506168E1,1.1136513E0,1.6955532E0,7.8165054E-1,2.1275473E-1,3.7964175E0,3.0695229E0,3.1807762E-1,6.161041E-1,4.4817895E-1,4.7481048E-1,0E0,0E0,1.1085379E-1,0E0,1.4976602E0,2.0652199E0,8.0426025E-1,3.5390478E-1,0E0,0E0,3.8580322E-1,0E0,1.4510322E-1,1.5288824E-1,0E0,1.6851336E-1,0E0,0E0,1.1302643E0,2.2555214E-1,7.163571E-1,1.4791563E0,2.9156637E-1,5.138054E-1,0E0,2.880507E-1,2.2147942E-1,1.7902803E-1,0E0,0E0,0E0,0E0,0E0,0E0,0E0,0E0,0E0,0E0,0E0,0E0,0E0,0E0,0E0,0E0,0E0,0E0,0E0,0E0,0E0,0E0,0E0,0E0],"parents":[2147483647,0,0,1,1,2,2,3,3,4,4,5,5,6,6,7,7,8,8,9,9,10,10,11,11,12,12,13,13,14,14,17,17,19,19,20,20,21,21,22,22,25,25,27,27,28,28,30,30,33,33,34,34,35,35,36,36,37,37,38,38,40,40,41,41,42,42],"right_children":[2,4,6,8,10,12,14,16,18,20,22,24,26,28,30,-1,-1,32,-1,34,36,38,40,-1,-1,42,-1,44,46,-1,48,-1,-1,50,52,54,56,58,60,-1,62,64,66,-1,-1,-1,-1,-1,-1,-1,-1,-1,-1,-1,-1,-1,-1,-1,-1,-1,-1,-1,-1,-1,-1,-1,-1],"split_conditions":[4.1876617E-1,-1.1088245E0,2.9893062E-1,-1.5424849E0,-2.1614984E-1,1.9133553E-2,1.1195552E0,7.4725354E-1,-1.4472717E0,-5.334306E-1,1.9133553E-2,-2.1614984E-1,1.6390439E0,3.6823913E-1,-1.0561308E0,-2.8382175E-2,-0E0,-1.3001863E0,-1.9539176E-3,-9.366225E-2,-8.783961E-1,-1.2519954E0,-1.071288E-1,-6.0276496E-3,2.912816E-3,2.2563435E-1,1.2659401E-3,-9.0668626E-2,2.5356922E-1,-1.4330456E-2,1.7337976E0,-0E0,-1.3200299E-2,-1.1359364E0,-6.0581416E-1,-1.5005271E-1,-3.211651E-1,-9.824489E-2,-1.425669E-1,-2.5954877E-3,4.983212E-1,4.5989323E-3,-1.5972178E0,-5.207473E-3,2.2531727E-3,6.537728E-3,3.1006333E-4,-6.505892E-3,-2.3948796E-4,-4.0700044E-3,1.3282675E-2,-3.0091053E-3,4.0378594E-3,2.9464127E-3,-9.223066E-3,6.5886932E-3,-3.13087E-3,1.1444119E-2,4.0686954E-4,7.339786E-3,1.9415598E-2,8.018146E-3,-3.351174E-3,-1.6226012E-2,-7.642743E-3,-1.4505286E-3,-1.0882798E-2],"split_indices":[10,8,12,10,12,8,10,1,10,0,8,12,0,11,4,0,0,0,0,8,12,10,10,0,0,20,0,6,6,0,12,0,0,12,1,0,7,0,12,0,14,12,0,0,0,0,0,0,0,0,0,0,0,0,0,0,0,0,0,0,0,0,0,0,0,0,0],"split_type":[0,0,0,0,0,0,0,0,0,0,0,0,0,0,0,0,0,0,0,0,0,0,0,0,0,0,0,0,0,0,0,0,0,0,0,0,0,0,0,0,0,0,0,0,0,0,0,0,0,0,0,0,0,0,0,0,0,0,0,0,0,0,0,0,0,0,0],"sum_hessian":[6.36E2,4.01E2,2.35E2,4.8E1,3.53E2,1.6E2,7.5E1,3.2E1,1.6E1,1.94E2,1.59E2,2.2E1,1.38E2,3.9E1,3.6E1,3.1E1,1E0,1.1E1,5E0,8E1,1.14E2,1.37E2,2.2E1,1.7E1,5E0,1.35E2,3E0,1.1E1,2.8E1,9E0,2.7E1,1E0,1E1,6.1E1,1.9E1,3.7E1,7.7E1,1.5E1,1.22E2,7E0,1.5E1,7.3E1,6.2E1,8E0,3E0,2E1,8E0,1.8E1,9E0,4E0,5.7E1,9E0,1E1,6E0,3.1E1,4.7E1,3E1,1E1,5E0,8E0,1.14E2,1.3E1,2E0,6.3E1,1E1,4E0,5.8E1],"tree_param":{"num_deleted":"0","num_feature":"23","num_nodes":"67","size_leaf_vector":"1"}},{"base_weights":[-1.5678184E-2,1.3922967E-1,-2.5769794E-1,-6.3953674E-1,2.4652179E-1,-3.4237975E-1,-1.1191194E-1,-7.5106865E-1,-3.0880406E-1,1.0441439E-1,4.0639862E-1,-4.279789E-1,-2.4886356E-1,4.6198115E-2,-2.1109714E-1,-2.7770493E-2,-6.7355E-4,-1.5250562E-2,-0E0,2.8065497E-1,-4.9664364E-3,4.6077117E-1,7.894114E-2,-1.6612215E-2,-2.8621876E-1,-1.4534809E-1,-1.247499E-2,2.9830013E-3,-3.7951258E-3,-3.55642E-1,-1.2919156E-1,-6.623993E-2,3.2269695E-1,-1.639402E-1,7.807939E-2,2.2044252E-1,5.090718E-1,-8.553406E-2,2.081172E-1,-1.1606442E-2,-1.0162401E-3,-1.6621949E-1,4.545956E-3,1.7487325E-3,-1.4419784E-2,-6.561173E-3,9.95415E-4,1.6622981E-3,-5.5794036E-3,1.2570882E-2,-4.7267233E-3,2.970018E-3,-8.959408E-3,5.5201137E-3,-5.374075E-3,1.2906408E-2,2.891695E-3,2.054512E-2,1.3000895E-2,1.4373302E-3,-7.272324E-3,-1.0558021E-5,1.0397862E-2,-6.676318E-3,8.308152E-4],"categories":[],"categories_nodes":[],"categories_segments":[],"categories_sizes":[],"default_left":[0,0,0,0,0,0,0,0,0,0,0,0,0,0,0,0,0,0,0,0,0,0,0,0,0,0,0,0,0,0,0,0,0,0,0,0,0,0,0,0,0,0,0,0,0,0,0,0,0,0,0,0,0,0,0,0,0,0,0,0,0,0,0,0,0],"id":1,"left_children":[1,3,5,7,9,11,13,15,17,19,21,23,25,27,29,-1,-1,-1,-1,31,33,35,37,-1,39,41,-1,-1,-1,43,45,47,49,51,53,55,57,59,61,-1,-1,63,-1,-1,-1,-1,-1,-1,-1,-1,-1,-1,-1,-1,-1,-1,-1,-1,-1,-1,-1,-1,-1,-1,-1],"loss_changes":[2.3478645E1,3.207361E1,2.915554E0,1.2613697E0,7.5304413E0,1.0013065E0,1.4817196E0,9.346752E-1,6.108204E-1,3.5092192E0,2.6957092E0,2.3272038E-1,7.350459E-1,2.3183021E-1,5.633421E-1,0E0,0E0,0E0,0E0,1.0713077E0,1.5130237E0,1.3199978E0,5.5949336E-1,0E0,2.2384429E-1,2.801584E-1,0E0,0E0,0E0,5.127845E-1,3.8671875E-1,1.1262117E-1,1.1385765E0,9.542488E-1,1.4109799E0,4.3040204E-1,7.621708E-1,2.0745042E-1,2.9866987E-1,0E0,0E0,2.1222782E-1,0E0,0E0,0E0,0E0,0E0,0E0,0E0,0E0,0E0,0E0,0E0,0E0,0E0,0E0,0E0,0E0,0E0,0E0,0E0,0E0,0E0,0E0,0E0],"parents":[2147483647,0,0,1,1,2,2,3,3,4,4,5,5,6,6,7,7,8,8,9,9,10,10,11,11,12,12,13,13,14,14,19,19,20,20,21,21,22,22,24,24,25,25,29,29,30,30,31,31,32,32,33,33,34,34,35,35,36,36,37,37,38,38,41,41],"right_children":[2,4,6,8,10,12,14,16,18,20,22,24,26,28,30,-1,-1,-1,-1,32,34,36,38,-1,40,42,-1,-1,-1,44,46,48,50,52,54,56,58,60,62,-1,-1,64,-1,-1,-1,-1,-1,-1,-1,-1,-1,-1,-1,-1,-1,-1,-1,-1,-1,-1,-1,-1,-1,-1,-1],"split_conditions":[4.1876617E-1,-1.8013386E0,-1.4304534E-1,-1.5391359E0,-2.1614984E-1,2.2563435E-1,1.0222058E0,-2.3323047E0,2.4380791E-1,-6.715848E-1,1.9133553E-2,-5.067199E-1,9.5564604E-1,1.0342958E0,-1.2700586E0,-2.7770493E-2,-6.7355E-4,-1.5250562E-2,-0E0,-1.1128442E0,-8.783961E-1,-9.594951E-1,6.668452E-1,-1.6612215E-2,6.8604535E-1,7.3537076E-1,-1.247499E-2,2.9830013E-3,-3.7951258E-3,-1.3623557E0,1.7337976E0,-1.3001863E0,4.7031677E-1,-1.5005271E-1,1.3192935E-1,-4.2806986E-1,2.4278572E-1,-1.4453162E-1,2.5516486E-1,-1.1606442E-2,-1.0162401E-3,9.2791724E-1,4.545956E-3,1.7487325E-3,-1.4419784E-2,-6.561173E-3,9.95415E-4,1.6622981E-3,-5.5794036E-3,1.2570882E-2,-4.7267233E-3,2.970018E-3,-8.959408E-3,5.5201137E-3,-5.374075E-3,1.2906408E-2,2.891695E-3,2.054512E-2,1.3000895E-2,1.4373302E-3,-7.272324E-3,-1.0558021E-5,1.0397862E-2,-6.676318E-3,8.308152E-4],"split_indices":[10,9,13,10,12,20,10,9,5,0,8,13,9,8,5,0,0,0,0,13,12,9,12,0,11,3,0,0,0,0,12,0,8,0,8,14,11,5,9,0,0,9,0,0,0,0,0,0,0,0,0,0,0,0,0,0,0,0,0,0,0,0,0,0,0],"split_type":[0,0,0,0,0,0,0,0,0,0,0,0,0,0,0,0,0,0,0,0,0,0,0,0,0,0,0,0,0,0,0,0,0,0,0,0,0,0,0,0,0,0,0,0,0,0,0,0,0,0,0,0,0,0,0,0,0,0,0,0,0,0,0,0,0],"sum_hessian":[6.23E2,3.8E2,2.43E2,4.5E1,3.35E2,1.52E2,9.1E1,3.2E1,1.3E1,1.79E2,1.56E2,7.6E1,7.6E1,3.5E1,5.6E1,3E1,2E0,9E0,4E0,6.8E1,1.11E2,1.33E2,2.3E1,5.4E1,2.2E1,4.1E1,3.5E1,2.9E1,6E0,1.8E1,3.8E1,7E0,6.1E1,3.8E1,7.3E1,2.4E1,1.09E2,1E1,1.3E1,1.8E1,4E0,3.9E1,2E0,2E0,1.6E1,2.8E1,1E1,3E0,4E0,5.7E1,4E0,1E1,2.8E1,5.5E1,1.8E1,1E1,1.4E1,6.6E1,4.3E1,5E0,5E0,4E0,9E0,3.5E1,4E0],"tree_param":{"num_deleted":"0","num_feature":"23","num_nodes":"65","size_leaf_vector":"1"}},{"base_weights":[-5.940095E-3,-7.1710706E-1,4.363419E-2,-2.690256E-2,-1.107428E-2,2.1369582E-1,-2.3888637E-1,8.15275E-2,3.733379E-1,-3.2086828E-1,-8.603278E-2,-2.7214444E-1,1.1819049E-1,8.171412E-2,4.1821522E-1,-4.194493E-1,-2.262347E-1,6.55143E-2,-2.0696506E-1,-1.02590285E-2,2.2138389E-4,2.2572464E-1,-5.1843233E-2,1.8499246E-1,-8.105768E-3,5.155786E-1,1.9423714E-1,-1.5668625E-2,-2.3127705E-1,-1.3942038E-1,-1.179246E-2,-2.226112E-3,9.7321175E-2,-3.147087E-1,-1.4626567E-1,2.37801E-3,1.0516909E-2,7.3961006E-3,-3.162285E-3,-3.1777472E-6,9.613421E-3,2.058971E-2,1.1161577E-2,8.014748E-4,1.3552644E-2,-0E0,-9.827303E-3,4.170361E-3,-5.2930233E-3,1.2117168E-3,6.5695792E-3,-0E0,-1.2635903E-2,-6.880687E-3,-7.010207E-4],"categories":[],"categories_nodes":[],"categories_segments":[],"categories_sizes":[],"default_left":[0,0,0,0,0,0,0,0,0,0,0,0,0,0,0,0,0,0,0,0,0,0,0,0,0,0,0,0,0,0,0,0,0,0,0,0,0,0,0,0,0,0,0,0,0,0,0,0,0,0,0,0,0,0,0],"id":2,"left_children":[1,3,5,-1,-1,7,9,11,13,15,17,19,21,23,25,27,29,31,33,-1,-1,35,37,39,-1,41,43,-1,45,47,-1,-1,49,51,53,-1,-1,-1,-1,-1,-1,-1,-1,-1,-1,-1,-1,-1,-1,-1,-1,-1,-1,-1,-1],"loss_changes":[2.2448702E1,3.8370323E-1,2.8589302E1,0E0,0E0,7.747368E0,2.7186327E0,2.697503E0,2.090868E0,1.14114E0,1.5098021E0,1.4533412E-1,3.4632723E0,8.5237247E-1,2.9299507E0,1.4062405E-1,6.2665653E-1,1.6255581E-1,1.8242466E-1,0E0,0E0,1.2949142E0,7.6137084E-1,3.5114974E-1,0E0,1.0505428E0,1.4832101E0,0E0,1.5917987E-1,1.7222261E-1,0E0,0E0,1.408624E-1,1.9314265E-1,1.789009E-1,0E0,0E0,0E0,0E0,0E0,0E0,0E0,0E0,0E0,0E0,0E0,0E0,0E0,0E0,0E0,0E0,0E0,0E0,0E0,0E0],"parents":[2147483647,0,0,1,1,2,2,5,5,6,6,7,7,8,8,9,9,10,10,11,11,12,12,13,13,14,14,15,15,16,16,17,17,18,18,21,21,22,22,23,23,25,25,26,26,28,28,29,29,32,32,33,33,34,34],"right_children":[2,4,6,-1,-1,8,10,12,14,16,18,20,22,24,26,28,30,32,34,-1,-1,36,38,40,-1,42,44,-1,46,48,-1,-1,50,52,54,-1,-1,-1,-1,-1,-1,-1,-1,-1,-1,-1,-1,-1,-1,-1,-1,-1,-1,-1,-1],"split_conditions":[-2.0688787E0,-2.2622802E0,4.279468E-1,-2.690256E-2,-1.107428E-2,-2.1614984E-1,2.6213914E-1,-1.0991449E0,-1.1145029E0,2.2563435E-1,1.1195552E0,1.5339104E0,-2.0730202E-1,1.5339104E0,-2.0730202E-1,-4.0974E-1,9.7481066E-1,2.8793252E-1,-1.2700586E0,-1.02590285E-2,2.2138389E-4,-8.4084487E-1,-6.836039E-1,-1.2700586E0,-8.105768E-3,1.4247123E0,6.668452E-1,-1.5668625E-2,-3.3601177E-1,-1.4506401E0,-1.179246E-2,-2.226112E-3,8.9142495E-1,-7.368669E-1,1.4762573E0,2.37801E-3,1.0516909E-2,7.3961006E-3,-3.162285E-3,-3.1777472E-6,9.613421E-3,2.058971E-2,1.1161577E-2,8.014748E-4,1.3552644E-2,-0E0,-9.827303E-3,4.170361E-3,-5.2930233E-3,1.2117168E-3,6.5695792E-3,-0E0,-1.2635903E-2,-6.880687E-3,-7.010207E-4],"split_indices":[9,9,10,0,0,12,12,12,9,20,10,15,7,15,7,13,9,11,5,0,0,9,10,5,0,14,12,0,3,1,0,0,10,14,12,0,0,0,0,0,0,0,0,0,0,0,0,0,0,0,0,0,0,0,0],"split_type":[0,0,0,0,0,0,0,0,0,0,0,0,0,0,0,0,0,0,0,0,0,0,0,0,0,0,0,0,0,0,0,0,0,0,0,0,0,0,0,0,0,0,0,0,0,0,0,0,0,0,0,0,0,0,0],"sum_hessian":[6.32E2,4E1,5.92E2,3.4E1,6E0,3.7E2,2.22E2,2.04E2,1.66E2,1.43E2,7.9E1,1.8E1,1.86E2,2.3E1,1.43E2,6.7E1,7.6E1,3.5E1,4.4E1,1.7E1,1E0,1.14E2,7.2E1,1.8E1,5E0,9.8E1,4.5E1,5.6E1,1.1E1,4.5E1,3.1E1,6E0,2.9E1,1.3E1,3.1E1,3.8E1,7.6E1,8E0,6.4E1,6E0,1.2E1,6.9E1,2.9E1,2.5E1,2E1,2E0,9E0,1E0,4.4E1,1.9E1,1E1,2E0,1.1E1,2.1E1,1E1],"tree_param":{"num_deleted":"0","num_feature":"23","num_nodes":"55","size_leaf_vector":"1"}},{"base_weights":[6.1242264E-3,-6.8544406E-1,5.5549346E-2,-2.5333889E-2,-9.959055E-3,2.530486E-1,-1.8882659E-1,-5.9968214E-3,3.1618986E-1,-2.5405535E-1,-8.133927E-3,3.8487673E-1,-1.027139E-1,3.5622445E-1,-7.184228E-2,-1.0231855E-1,-3.2497352E-1,6.635208E-2,-3.0453408E-1,1.6191384E-2,1.8543826E-3,5.0133083E-2,-1.9376007E-1,1.457593E-1,4.2789274E-1,6.5367287E-3,-4.7092605E-3,2.3176271E-2,-2.1570176E-1,-3.3845937E-1,1.886656E-4,1.827717E-1,-4.6969936E-3,-0E0,-1.1416319E-2,-5.3105336E-3,4.0247473E-3,-8.963078E-3,1.3177465E-3,6.514525E-3,-2.8969024E-3,1.8772462E-2,1.1378915E-2,-3.0079102E-3,4.4490993E-3,2.6494826E-3,-4.435152E-3,-9.732303E-3,-3.1401797E-3,-1.3050077E-2,-8.113176E-3,8.493181E-3,7.8732154E-4,-1.7566546E-3,5.353579E-3],"categories":[],"categories_nodes":[],"categories_segments":[],"categories_sizes":[],"default_left":[0,0,0,0,0,0,0,0,0,0,0,0,0,0,0,0,0,0,0,0,0,0,0,0,0,0,0,0,0,0,0,0,0,0,0,0,0,0,0,0,0,0,0,0,0,0,0,0,0,0,0,0,0,0,0],"id":3,"left_children":[1,3,5,-1,-1,7,9,11,13,15,17,19,21,23,25,27,29,31,33,-1,-1,35,37,39,41,43,-1,45,47,49,-1,51,53,-1,-1,-1,-1,-1,-1,-1,-1,-1,-1,-1,-1,-1,-1,-1,-1,-1,-1,-1,-1,-1,-1],"loss_changes":[2.2297127E1,2.5955772E-1,2.9543304E1,0E0,0E0,5.570524E0,3.1942492E0,2.5828621E0,4.3000355E0,2.0649548E0,1.6989138E0,2.5996947E-1,8.012787E-1,3.5822906E0,1.4436793E-1,9.7298026E-1,6.3972855E-1,5.1952136E-1,1.05223775E-1,0E0,0E0,3.039921E-1,5.483333E-1,6.3772583E-1,1.6979408E0,1.5989085E-1,0E0,2.651582E-1,2.047149E-1,2.8868008E-1,0E0,1.9087446E-1,2.773716E-1,0E0,0E0,0E0,0E0,0E0,0E0,0E0,0E0,0E0,0E0,0E0,0E0,0E0,0E0,0E0,0E0,0E0,0E0,0E0,0E0,0E0,0E0],"parents":[2147483647,0,0,1,1,2,2,5,5,6,6,7,7,8,8,9,9,10,10,11,11,12,12,13,13,14,14,15,15,16,16,17,17,18,18,21,21,22,22,23,23,24,24,25,25,27,27,28,28,29,29,31,31,32,32],"right_children":[2,4,6,-1,-1,8,10,12,14,16,18,20,22,24,26,28,30,32,34,-1,-1,36,38,40,42,44,-1,46,48,50,-1,52,54,-1,-1,-1,-1,-1,-1,-1,-1,-1,-1,-1,-1,-1,-1,-1,-1,-1,-1,-1,-1,-1,-1],"split_conditions":[-2.0688787E0,-2.211259E0,1.9133553E-2,-2.5333889E-2,-9.959055E-3,-7.6802176E-1,6.3005376E-1,-1.165486E0,1.1000279E0,5.45332E-1,2.3216927E0,-5.6021374E-1,-1.5005271E-1,-9.1237134E-1,-4.3204966E-1,-3.6073783E-1,1.4421742E0,7.35543E-1,-1.6801103E0,1.6191384E-2,1.8543826E-3,-1.258314E0,-8.783961E-1,1.5339104E0,1.3101314E-1,7.4725354E-1,-4.7092605E-3,6.865116E-1,-3.6331567E-1,-1.425669E-1,1.886656E-4,3.512566E-2,2.5137641E0,-0E0,-1.1416319E-2,-5.3105336E-3,4.0247473E-3,-8.963078E-3,1.3177465E-3,6.514525E-3,-2.8969024E-3,1.8772462E-2,1.1378915E-2,-3.0079102E-3,4.4490993E-3,2.6494826E-3,-4.435152E-3,-9.732303E-3,-3.1401797E-3,-1.3050077E-2,-8.113176E-3,8.493181E-3,7.8732154E-4,-1.7566546E-3,5.353579E-3],"split_indices":[9,9,8,0,0,12,12,0,11,10,15,10,0,9,8,0,0,9,0,0,0,13,12,15,11,1,0,6,12,12,0,14,1,0,0,0,0,0,0,0,0,0,0,0,0,0,0,0,0,0,0,0,0,0,0],"split_type":[0,0,0,0,0,0,0,0,0,0,0,0,0,0,0,0,0,0,0,0,0,0,0,0,0,0,0,0,0,0,0,0,0,0,0,0,0,0,0,0,0,0,0,0,0,0,0,0,0,0,0,0,0,0,0],"sum_hessian":[6.51E2,4.2E1,6.09E2,3.7E1,5E0,3.37E2,2.72E2,6.6E1,2.71E2,1.99E2,7.3E1,1.2E1,5.4E1,2.46E2,2.5E1,6.5E1,1.34E2,5.9E1,1.4E1,9E0,3E0,2E1,3.4E1,6.4E1,1.82E2,1.1E1,1.4E1,3.1E1,3.4E1,1.29E2,5E0,2.2E1,3.7E1,1E0,1.3E1,4E0,1.6E1,2.7E1,7E0,5.5E1,9E0,8.5E1,9.7E1,6E0,5E0,2.4E1,7E0,2.1E1,1.3E1,9.4E1,3.5E1,1.5E1,7E0,3E1,7E0],"tree_param":{"num_deleted":"0","num_feature":"23","num_nodes":"55","size_leaf_vector":"1"}},{"base_weights":[3.960805E-3,-6.591971E-1,4.6422508E-2,-2.3958012E-2,-8.40869E-2,2.3627502E-1,-1.8823664E-1,3.8705252E-3,-9.3907835E-3,7.059517E-2,3.379754E-1,-2.607649E-1,-3.6071688E-2,2.7054924E-1,-4.322174E-2,3.7822917E-1,-3.0131169E-2,-1.5967238E-1,-3.363541E-1,4.6810187E-2,-2.291223E-1,-3.748286E-2,3.1884846E-1,-2.0587105E-1,7.8459345E-2,1.6021246E-1,4.4515803E-1,2.9649194E-3,-3.5431392E-3,-2.942054E-2,-2.6473275E-1,-3.5410514E-1,-9.5736014E-4,1.3875157E-1,-1.9819232E-2,-0E0,-2.944437E-1,6.8707024E-3,-4.69477E-3,-1.687622E-3,1.2690915E-2,-1.172929E-3,-9.94554E-3,7.1127005E-3,-1.8240458E-3,-2.055118E-3,7.3706335E-3,1.9080296E-2,1.0505707E-2,1.1190422E-3,-7.2529446E-3,-1.8425685E-3,-1.1516094E-2,-4.763252E-3,-1.3250871E-2,-1.5191057E-3,6.5298923E-3,1.0127371E-2,-1.5022238E-3,-1.3575548E-2,-1.0197175E-3],"categories":[],"categories_nodes":[],"categories_segments":[],"categories_sizes":[],"default_left":[0,0,0,0,0,0,0,0,0,0,0,0,0,0,0,0,0,0,0,0,0,0,0,0,0,0,0,0,0,0,0,0,0,0,0,0,0,0,0,0,0,0,0,0,0,0,0,0,0,0,0,0,0,0,0,0,0,0,0,0,0],"id":4,"left_children":[1,3,5,-1,7,9,11,-1,-1,13,15,17,19,21,23,25,27,29,31,33,35,37,39,41,43,45,47,-1,-1,49,51,53,-1,55,57,-1,59,-1,-1,-1,-1,-1,-1,-1,-1,-1,-1,-1,-1,-1,-1,-1,-1,-1,-1,-1,-1,-1,-1,-1,-1],"loss_changes":[1.8020346E1,3.97377E-1,2.695782E1,0E0,1.8579938E-1,5.55958E0,2.941515E0,0E0,0E0,2.9874544E0,3.1117554E0,1.2644129E0,1.4663546E0,7.5275445E-1,1.6895473E0,2.5538197E0,1.9007388E-1,1.074173E0,5.095463E-1,4.050192E-1,4.2031944E-1,2.0275421E-1,7.241049E-1,4.464612E-1,8.2109165E-1,5.465864E-1,1.7215576E0,0E0,0E0,4.4773373E-1,5.426934E-1,3.8649368E-1,0E0,2.659893E-1,2.6182324E-1,0E0,4.742812E-1,0E0,0E0,0E0,0E0,0E0,0E0,0E0,0E0,0E0,0E0,0E0,0E0,0E0,0E0,0E0,0E0,0E0,0E0,0E0,0E0,0E0,0E0,0E0,0E0],"parents":[2147483647,0,0,1,1,2,2,4,4,5,5,6,6,9,9,10,10,11,11,12,12,13,13,14,14,15,15,16,16,17,17,18,18,19,19,20,20,21,21,22,22,23,23,24,24,25,25,26,26,29,29,30,30,31,31,33,33,34,34,36,36],"right_children":[2,4,6,-1,8,10,12,-1,-1,14,16,18,20,22,24,26,28,30,32,34,36,38,40,42,44,46,48,-1,-1,50,52,54,-1,56,58,-1,60,-1,-1,-1,-1,-1,-1,-1,-1,-1,-1,-1,-1,-1,-1,-1,-1,-1,-1,-1,-1,-1,-1,-1,-1],"split_conditions":[-2.211259E0,1.2502705E0,1.9133553E-2,-2.3958012E-2,-1.1009784E0,-4.7369006E-1,2.6213914E-1,3.8705252E-3,-9.3907835E-3,-6.715848E-1,1.1000279E0,5.8973974E-1,1.8952417E-1,-1.4144019E0,-8.783961E-1,-9.1237134E-1,-4.3204966E-1,7.801372E-2,1.4421742E0,7.35543E-1,8.2875407E-1,-1.6043963E0,-1.3918025E0,-4.2806986E-1,4.4129488E-1,-1.1088245E0,2.4278572E-1,2.9649194E-3,-3.5431392E-3,9.2942774E-1,6.307747E-1,-7.2772074E-1,-9.5736014E-4,3.7251353E-1,-1.5582091E0,-0E0,-2.0529288E-1,6.8707024E-3,-4.69477E-3,-1.687622E-3,1.2690915E-2,-1.172929E-3,-9.94554E-3,7.1127005E-3,-1.8240458E-3,-2.055118E-3,7.3706335E-3,1.9080296E-2,1.0505707E-2,1.1190422E-3,-7.2529446E-3,-1.8425685E-3,-1.1516094E-2,-4.763252E-3,-1.3250871E-2,-1.5191057E-3,6.5298923E-3,1.0127371E-2,-1.5022238E-3,-1.3575548E-2,-1.0197175E-3],"split_indices":[9,6,8,0,2,12,12,0,0,0,11,7,14,2,12,9,8,5,0,9,9,2,11,14,11,8,11,0,0,11,11,2,0,12,3,0,5,0,0,0,0,0,0,0,0,0,0,0,0,0,0,0,0,0,0,0,0,0,0,0,0],"split_type":[0,0,0,0,0,0,0,0,0,0,0,0,0,0,0,0,0,0,0,0,0,0,0,0,0,0,0,0,0,0,0,0,0,0,0,0,0,0,0,0,0,0,0,0,0,0,0,0,0,0,0,0,0,0,0,0,0,0,0,0,0],"sum_hessian":[6.39E2,3.7E1,6.02E2,3.5E1,2E0,3.33E2,2.69E2,1E0,1E0,1.28E2,2.05E2,1.81E2,8.8E1,4.6E1,8.2E1,1.85E2,2E1,8E1,1.01E2,6.2E1,2.6E1,6E0,4E1,3.5E1,4.7E1,4.5E1,1.4E2,7E0,1.3E1,3.7E1,4.3E1,9.5E1,6E0,2.6E1,3.6E1,6E0,2E1,1E0,5E0,4E0,3.6E1,1.2E1,2.3E1,2.4E1,2.3E1,8E0,3.7E1,8E1,6E1,2.8E1,9E0,1.1E1,3.2E1,1.1E1,8.4E1,5E0,2.1E1,1E0,3.5E1,1.4E1,6E0],"tree_param":{"num_deleted":"0","num_feature":"23","num_nodes":"61","size_leaf_vector":"1"}},{"base_weights":[-4.1274973E-3,-2.3431795E-2,3.9500386E-2,2.0795807E-1,-2.1183039E-1,2.466702E-1,-4.7756836E-2,-3.0827364E-1,-9.8555885E-2,-6.15303E-2,2.949464E-1,-2.8622271E-3,-9.98413E-3,-3.244417E-1,4.4620273E-4,7.2249495E-3,-2.2092743E-1,9.384091E-2,-2.2414932E-1,8.17471E-2,3.6410215E-1,-8.0046095E-2,5.240753E-2,-1.9733119E-1,-3.7062934E-1,-8.135821E-2,7.883543E-2,-1.21853E-2,-5.490168E-3,-3.6086924E-3,6.1571053E-3,1.8992624E-4,-8.813772E-3,6.3736876E-3,-2.8515682E-3,1.4534989E-2,8.021106E-3,-0E0,-5.4842266E-3,-5.009057E-3,3.2361988E-3,-3.8334806E-4,-8.53747E-3,-1.4237602E-3,-1.330356E-2,-7.503702E-3,-3.1071433E-4,1.0006007E-2,1.5577681E-3],"categories":[],"categories_nodes":[],"categories_segments":[],"categories_sizes":[],"default_left":[0,0,0,0,0,0,0,0,0,0,0,0,0,0,0,0,0,0,0,0,0,0,0,0,0,0,0,0,0,0,0,0,0,0,0,0,0,0,0,0,0,0,0,0,0,0,0,0,0],"id":5,"left_children":[1,-1,3,5,7,9,11,13,15,17,19,21,-1,23,-1,25,27,29,31,33,35,37,39,41,43,45,47,-1,-1,-1,-1,-1,-1,-1,-1,-1,-1,-1,-1,-1,-1,-1,-1,-1,-1,-1,-1,-1,-1],"loss_changes":[1.9101435E1,0E0,2.6125101E1,3.695341E0,2.6175737E0,4.8340816E0,4.9776417E-1,7.250881E-1,1.5318063E0,1.1689335E0,4.01696E0,1.946245E-1,0E0,5.761728E-1,0E0,4.1217974E-1,3.1179237E-1,4.1435748E-1,1.696316E-1,1.1871452E0,1.2396107E0,1.0830434E-1,2.1449363E-1,2.9617643E-1,2.1757793E-1,2.496248E-1,2.073012E-1,0E0,0E0,0E0,0E0,0E0,0E0,0E0,0E0,0E0,0E0,0E0,0E0,0E0,0E0,0E0,0E0,0E0,0E0,0E0,0E0,0E0,0E0],"parents":[2147483647,0,0,2,2,3,3,4,4,5,5,6,6,7,7,8,8,9,9,10,10,11,11,13,13,15,15,16,16,17,17,18,18,19,19,20,20,21,21,22,22,23,23,24,24,25,25,26,26],"right_children":[2,-1,4,6,8,10,12,14,16,18,20,22,-1,24,-1,26,28,30,32,34,36,38,40,42,44,46,48,-1,-1,-1,-1,-1,-1,-1,-1,-1,-1,-1,-1,-1,-1,-1,-1,-1,-1,-1,-1,-1,-1],"split_conditions":[-2.211259E0,-2.3431795E-2,4.1876617E-1,1.342873E-1,-3.370051E-1,-1.3829967E0,8.6515766E-1,1.4421742E0,1.1587607E0,-4.2806986E-1,-7.976596E-1,-2.9064458E-2,-9.98413E-3,-7.368669E-1,4.4620273E-4,6.562211E-1,-1.2700586E0,-1.8678942E0,-5.437921E-1,-2.0730202E-1,5.0627893E-1,3.560372E-1,-1.0885992E0,7.194178E-1,-9.343891E-2,-7.0310414E-2,-5.326026E-1,-1.21853E-2,-5.490168E-3,-3.6086924E-3,6.1571053E-3,1.8992624E-4,-8.813772E-3,6.3736876E-3,-2.8515682E-3,1.4534989E-2,8.021106E-3,-0E0,-5.4842266E-3,-5.009057E-3,3.2361988E-3,-3.8334806E-4,-8.53747E-3,-1.4237602E-3,-1.330356E-2,-7.503702E-3,-3.1071433E-4,1.0006007E-2,1.5577681E-3],"split_indices":[9,0,10,7,13,9,9,0,10,14,13,10,0,14,0,11,5,9,0,7,11,9,13,10,7,13,3,0,0,0,0,0,0,0,0,0,0,0,0,0,0,0,0,0,0,0,0,0,0],"split_type":[0,0,0,0,0,0,0,0,0,0,0,0,0,0,0,0,0,0,0,0,0,0,0,0,0,0,0,0,0,0,0,0,0,0,0,0,0,0,0,0,0,0,0,0,0,0,0,0,0],"sum_hessian":[6.53E2,3.9E1,6.14E2,3.68E2,2.46E2,3.2E2,4.8E1,1.31E2,1.15E2,4.3E1,2.77E2,4.2E1,6E0,1.25E2,6E0,6.2E1,5.3E1,2.2E1,2.1E1,6.9E1,2.08E2,1.8E1,2.4E1,3.6E1,8.9E1,2.7E1,3.5E1,1.5E1,3.8E1,6E0,1.6E1,2E0,1.9E1,4.3E1,2.6E1,1.48E2,6E1,1E1,8E0,3E0,2.1E1,8E0,2.8E1,3E0,8.6E1,8E0,1.9E1,3E0,3.2E1],"tree_param":{"num_deleted":"0","num_feature":"23","num_nodes":"49","size_leaf_vector":"1"}},{"base_weights":[5.73348E-3,1.4255288E-1,-1.8588169E-1,-5.238217E-1,2.4149401E-1,-2.4168576E-1,-3.6605082E-2,-6.5631807E-1,-2.2714373E-1,9.2451416E-2,3.4065032E-1,-7.395614E-2,-2.9441676E-1,-2.910163E-1,2.7829321E-2,-2.3572369E-2,-2.1286817E-4,-1.3981928E-2,1.4066208E-2,1.4235793E-1,-1.11459054E-1,3.784842E-1,-3.2921198E-3,5.73971E-2,-1.6486487E-1,-1.2932863E-2,-2.004536E-1,-1.2737972E-2,-1.4344846E-3,8.750522E-2,-8.187384E-2,-7.0744352E-3,3.3827713E-3,-1.9023305E-1,1.8426311E-1,-8.25311E-3,-0E0,1.4029482E-1,4.3772703E-1,1.4284255E-3,-5.351112E-3,1.7196202E-1,-4.30231E-3,-1.070111E-2,-1.0512419E-1,-1.2661892E-1,-9.729158E-3,1.15093865E-1,-2.379303E-3,-4.216739E-3,2.866578E-3,-9.366924E-3,-1.9656723E-5,-3.131486E-3,7.6515693E-3,3.3092278E-3,-3.3344508E-3,6.461454E-3,-3.440047E-3,1.6972518E-2,8.73688E-3,8.224604E-3,-3.5695187E-4,-6.970264E-3,1.0575405E-3,-5.7512852E-3,1.3633673E-4,-2.1738664E-3,4.600378E-3],"categories":[],"categories_nodes":[],"categories_segments":[],"categories_sizes":[],"default_left":[0,0,0,0,0,0,0,0,0,0,0,0,0,0,0,0,0,0,0,0,0,0,0,0,0,0,0,0,0,0,0,0,0,0,0,0,0,0,0,0,0,0,0,0,0,0,0,0,0,0,0,0,0,0,0,0,0,0,0,0,0,0,0,0,0,0,0,0,0],"id":6,"left_children":[1,3,5,7,9,11,13,15,17,19,21,23,25,27,29,-1,-1,-1,31,33,35,37,39,41,43,-1,45,-1,-1,47,49,-1,-1,51,53,-1,55,57,59,-1,-1,61,-1,-1,63,65,-1,67,-1,-1,-1,-1,-1,-1,-1,-1,-1,-1,-1,-1,-1,-1,-1,-1,-1,-1,-1,-1,-1],"loss_changes":[1.6722326E1,2.4721136E1,2.17058E0,1.5945091E0,4.7198563E0,1.6330767E0,1.2597331E0,2.889204E-1,7.744473E-1,1.3752714E0,2.5703526E0,6.04087E-1,8.58552E-1,2.1975517E-1,4.0738118E-1,0E0,0E0,0E0,1.705163E-1,1.550241E0,3.6582634E-1,2.326563E0,1.5582338E-1,4.6010774E-1,1.5898275E-1,0E0,2.988274E-1,0E0,0E0,1.9017744E-1,1.5459205E-1,0E0,0E0,1.5644705E-1,9.4970465E-1,0E0,1.5313566E-1,4.323566E-1,9.8356056E-1,0E0,0E0,1.8106705E-1,0E0,0E0,3.249682E-1,2.0645535E-1,0E0,1.2200412E-1,0E0,0E0,0E0,0E0,0E0,0E0,0E0,0E0,0E0,0E0,0E0,0E0,0E0,0E0,0E0,0E0,0E0,0E0,0E0,0E0,0E0],"parents":[2147483647,0,0,1,1,2,2,3,3,4,4,5,5,6,6,7,7,8,8,9,9,10,10,11,11,12,12,13,13,14,14,18,18,19,19,20,20,21,21,22,22,23,23,24,24,26,26,29,29,30,30,33,33,34,34,36,36,37,37,38,38,41,41,44,44,45,45,47,47],"right_children":[2,4,6,8,10,12,14,16,18,20,22,24,26,28,30,-1,-1,-1,32,34,36,38,40,42,44,-1,46,-1,-1,48,50,-1,-1,52,54,-1,56,58,60,-1,-1,62,-1,-1,64,66,-1,68,-1,-1,-1,-1,-1,-1,-1,-1,-1,-1,-1,-1,-1,-1,-1,-1,-1,-1,-1,-1,-1],"split_conditions":[1.9133553E-2,-1.8013386E0,4.4609645E-1,-1.5370573E0,-4.7369006E-1,3.2978898E-1,-1.7348821E0,-2.2622802E0,2.4925664E-1,3.5835184E-2,1.1000279E0,-1.3450633E-1,2.2563435E-1,-1.2700586E0,1.1195552E0,-2.3572369E-2,-2.1286817E-4,-1.3981928E-2,-1.4939234E0,-1.1359364E0,1.05362706E-1,-9.1237134E-1,7.6187176E-1,-5.0609183E-1,1.3192935E-1,-1.2932863E-2,9.5564604E-1,-1.2737972E-2,-1.4344846E-3,1.8952417E-1,1.2754145E0,-7.0744352E-3,3.3827713E-3,1.4950605E-1,-1.1370891E0,-8.25311E-3,-9.074906E-2,3.5451126E-1,-2.0730202E-1,1.4284255E-3,-5.351112E-3,8.716595E-2,-4.30231E-3,-1.070111E-2,4.527868E-1,6.785525E-1,-9.729158E-3,1.5046424E-1,-2.379303E-3,-4.216739E-3,2.866578E-3,-9.366924E-3,-1.9656723E-5,-3.131486E-3,7.6515693E-3,3.3092278E-3,-3.3344508E-3,6.461454E-3,-3.440047E-3,1.6972518E-2,8.73688E-3,8.224604E-3,-3.5695187E-4,-6.970264E-3,1.0575405E-3,-5.7512852E-3,1.3633673E-4,-2.1738664E-3,4.600378E-3],"split_indices":[8,9,12,10,12,10,6,9,6,10,11,5,20,5,10,0,0,0,2,12,5,9,2,2,8,0,9,0,0,14,9,0,0,5,13,0,6,2,7,0,0,10,0,0,11,5,0,9,0,0,0,0,0,0,0,0,0,0,0,0,0,0,0,0,0,0,0,0,0],"split_type":[0,0,0,0,0,0,0,0,0,0,0,0,0,0,0,0,0,0,0,0,0,0,0,0,0,0,0,0,0,0,0,0,0,0,0,0,0,0,0,0,0,0,0,0,0,0,0,0,0,0,0,0,0,0,0,0,0,0,0,0,0,0,0,0,0,0,0,0,0],"sum_hessian":[6.35E2,3.71E2,2.64E2,4.7E1,3.24E2,1.91E2,7.3E1,3.1E1,1.6E1,1.31E2,1.93E2,4.7E1,1.44E2,1.4E1,5.9E1,3E1,1E0,9E0,7E0,1.06E2,2.5E1,1.74E2,1.9E1,1.9E1,2.8E1,7.7E1,6.7E1,1E1,4E0,3.9E1,2E1,1E0,6E0,1.1E1,9.5E1,1.1E1,1.4E1,3.6E1,1.38E2,1.5E1,4E0,1.2E1,7E0,6E0,2.2E1,3.7E1,3E1,3.4E1,5E0,1.7E1,3E0,7E0,4E0,1E1,8.5E1,7E0,7E0,3.1E1,5E0,1.08E2,3E1,9E0,3E0,1.3E1,9E0,2.9E1,8E0,2E0,3.2E1],"tree_param":{"num_deleted":"0","num_feature":"23","num_nodes":"69","size_leaf_vector":"1"}},{"base_weights":[2.464037E-3,-6.002215E-1,4.0198054E-2,-2.1935144E-2,-6.1173975E-3,2.1070094E-1,-1.7494085E-1,-1.0451363E-2,2.661105E-1,-2.3006697E-1,-3.4761008E-2,1.08072236E-1,-1.1542042E-1,4.056329E-1,1.2902832E-1,-1.3163345E-1,-2.956702E-1,1.751256E-2,-1.3311962E-2,1.4855967E-1,-5.990156E-3,1.0745321E-1,-1.8471429E-1,2.0818722E-1,4.5459175E-1,-1.8523932E-2,1.9024535E-1,4.2827195E-3,-2.3553617E-1,-3.1507656E-1,-2.4989404E-2,1.2278176E-1,-3.4102388E-2,-0E0,6.094403E-3,7.3206513E-3,-1.8568976E-3,-7.722657E-3,2.3184263E-3,9.570768E-3,-0E0,-5.3006117E-3,1.6436307E-2,-3.2269435E-3,4.7991723E-3,9.787289E-3,-3.911233E-5,2.8344563E-3,-7.276449E-3,-1.1317216E-2,-4.191981E-3,1.523458E-3,-1.1204842E-2,-3.951496E-3,5.0934977E-3,-2.5449495E-4,5.737417E-3,-2.854882E-3,1.3631018E-3],"categories":[],"categories_nodes":[],"categories_segments":[],"categories_sizes":[],"default_left":[0,0,0,0,0,0,0,0,0,0,0,0,0,0,0,0,0,0,0,0,0,0,0,0,0,0,0,0,0,0,0,0,0,0,0,0,0,0,0,0,0,0,0,0,0,0,0,0,0,0,0,0,0,0,0,0,0,0,0],"id":7,"left_children":[1,3,5,-1,-1,7,9,11,13,15,17,19,21,23,25,27,29,31,-1,33,-1,35,37,39,41,43,45,47,49,51,53,55,57,-1,-1,-1,-1,-1,-1,-1,-1,-1,-1,-1,-1,-1,-1,-1,-1,-1,-1,-1,-1,-1,-1,-1,-1,-1,-1],"loss_changes":[1.4478053E1,1.7826939E-1,2.2122972E1,0E0,0E0,4.1531935E0,2.020918E0,8.716752E-1,5.0224934E0,1.129055E0,1.4462914E0,4.0328842E-1,6.166399E-1,1.0726013E0,1.273489E0,1.1473422E0,5.451374E-1,3.8734096E-1,0E0,1.220904E-1,0E0,1.873429E-1,3.033831E-1,4.0385532E-1,1.0895386E0,4.9034858E-1,1.7132819E0,5.9031427E-1,3.601346E-1,2.3824883E-1,1.6379033E-1,1.43201E-1,1.7025581E-1,0E0,0E0,0E0,0E0,0E0,0E0,0E0,0E0,0E0,0E0,0E0,0E0,0E0,0E0,0E0,0E0,0E0,0E0,0E0,0E0,0E0,0E0,0E0,0E0,0E0,0E0],"parents":[2147483647,0,0,1,1,2,2,5,5,6,6,7,7,8,8,9,9,10,10,11,11,12,12,13,13,14,14,15,15,16,16,17,17,19,19,21,21,22,22,23,23,24,24,25,25,26,26,27,27,28,28,29,29,30,30,31,31,32,32],"right_children":[2,4,6,-1,-1,8,10,12,14,16,18,20,22,24,26,28,30,32,-1,34,-1,36,38,40,42,44,46,48,50,52,54,56,58,-1,-1,-1,-1,-1,-1,-1,-1,-1,-1,-1,-1,-1,-1,-1,-1,-1,-1,-1,-1,-1,-1,-1,-1,-1,-1],"split_conditions":[-2.211259E0,-2.2622802E0,1.9133553E-2,-2.1935144E-2,-6.1173975E-3,-1.0653521E0,2.9893062E-1,-4.2806986E-1,2.6549593E-1,5.8311254E-1,2.1759372E0,5.9218865E-2,-5.679864E-2,-7.6817125E-1,-7.249246E-1,7.523975E-1,1.4421742E0,7.240396E-1,-1.3311962E-2,-1.2700586E0,-5.990156E-3,4.524306E-2,1.9990517E-1,8.186275E-1,-1.1727278E0,2.6578835E-1,1.1000279E0,-4.2806986E-1,2.2563435E-1,4.758766E-1,4.6003765E-1,2.5516486E-1,1.7337976E0,-0E0,6.094403E-3,7.3206513E-3,-1.8568976E-3,-7.722657E-3,2.3184263E-3,9.570768E-3,-0E0,-5.3006117E-3,1.6436307E-2,-3.2269435E-3,4.7991723E-3,9.787289E-3,-3.911233E-5,2.8344563E-3,-7.276449E-3,-1.1317216E-2,-4.191981E-3,1.523458E-3,-1.1204842E-2,-3.951496E-3,5.0934977E-3,-2.5449495E-4,5.737417E-3,-2.854882E-3,1.3631018E-3],"split_indices":[9,9,8,0,0,9,12,14,11,8,19,2,0,9,13,11,0,9,0,5,0,5,5,19,12,9,11,14,20,7,11,9,12,0,0,0,0,0,0,0,0,0,0,0,0,0,0,0,0,0,0,0,0,0,0,0,0,0,0],"split_type":[0,0,0,0,0,0,0,0,0,0,0,0,0,0,0,0,0,0,0,0,0,0,0,0,0,0,0,0,0,0,0,0,0,0,0,0,0,0,0,0,0,0,0,0,0,0,0,0,0,0,0,0,0,0,0,0,0,0,0],"sum_hessian":[6.36E2,3.6E1,6E2,3.3E1,3E0,3.35E2,2.65E2,6.7E1,2.68E2,1.89E2,7.6E1,3.1E1,3.6E1,1.31E2,1.37E2,7.8E1,1.11E2,6.7E1,9E0,2.8E1,3E0,8E0,2.8E1,2.8E1,1.03E2,4E1,9.7E1,3.4E1,4.4E1,1.03E2,8E0,2.2E1,4.5E1,4E0,2.4E1,5E0,3E0,2.5E1,3E0,2.1E1,7E0,2E0,1.01E2,2.8E1,1.2E1,6.6E1,3.1E1,2.6E1,8E0,2.3E1,2.1E1,1E0,1.02E2,6E0,2E0,5E0,1.7E1,2.8E1,1.7E1],"tree_param":{"num_deleted":"0","num_feature":"23","num_nodes":"59","size_leaf_vector":"1"}},{"base_weights":[-1.7890158E-3,1.012144E-1,-2.2161937E-1,-4.8657987E-1,1.7960502E-1,-2.776902E-1,-8.898116E-2,-6.2264556E-1,-2.1026853E-1,-2.0056985E-2,2.6392013E-1,-1.2350389E-2,-2.0062433E-1,4.4521913E-2,-1.8000348E-1,-2.2345887E-2,-1.2424465E-4,4.551617E-3,-2.900269E-1,2.545492E-1,-6.905722E-2,3.227636E-1,8.100966E-2,-2.2321627E-1,2.5147127E-3,-5.032826E-4,7.348182E-3,-1.1259972E-2,-1.2373299E-1,-1.2756599E-2,-8.241906E-4,1.4118425E-2,-2.6259862E-3,-9.444729E-3,-3.3044815E-2,1.3545856E-1,3.678787E-1,1.7904216E-1,-1.4867397E-2,-2.427579E-3,-8.597586E-3,-5.0022528E-3,1.9940683E-3,1.1996848E-3,-4.690891E-3,8.074059E-3,1.6551209E-3,1.49382595E-2,9.033756E-3,-1.258585E-3,8.039747E-3,-4.175132E-3,4.963292E-3],"categories":[],"categories_nodes":[],"categories_segments":[],"categories_sizes":[],"default_left":[0,0,0,0,0,0,0,0,0,0,0,0,0,0,0,0,0,0,0,0,0,0,0,0,0,0,0,0,0,0,0,0,0,0,0,0,0,0,0,0,0,0,0,0,0,0,0,0,0,0,0,0,0],"id":8,"left_children":[1,3,5,7,9,11,13,15,17,19,21,-1,23,25,27,-1,-1,-1,29,31,33,35,37,39,-1,-1,-1,-1,41,-1,-1,-1,-1,-1,43,45,47,49,51,-1,-1,-1,-1,-1,-1,-1,-1,-1,-1,-1,-1,-1,-1],"loss_changes":[1.4503419E1,2.0167168E1,1.4471636E0,1.6565437E0,6.5220356E0,6.640568E-1,7.9720604E-1,2.6026058E-1,6.0186094E-1,1.5619596E0,2.842579E0,0E0,4.977932E-1,2.822969E-1,2.0274806E-1,0E0,0E0,0E0,2.75661E-1,9.3665075E-1,6.758204E-1,1.6030006E0,6.6424644E-1,1.8277812E-1,0E0,0E0,0E0,0E0,1.2656727E-1,0E0,0E0,0E0,0E0,0E0,6.049075E-1,3.1268013E-1,8.238926E-1,4.07575E-1,6.0391694E-1,0E0,0E0,0E0,0E0,0E0,0E0,0E0,0E0,0E0,0E0,0E0,0E0,0E0,0E0],"parents":[2147483647,0,0,1,1,2,2,3,3,4,4,5,5,6,6,7,7,8,8,9,9,10,10,12,12,13,13,14,14,18,18,19,19,20,20,21,21,22,22,23,23,28,28,34,34,35,35,36,36,37,37,38,38],"right_children":[2,4,6,8,10,12,14,16,18,20,22,-1,24,26,28,-1,-1,-1,30,32,34,36,38,40,-1,-1,-1,-1,42,-1,-1,-1,-1,-1,44,46,48,50,52,-1,-1,-1,-1,-1,-1,-1,-1,-1,-1,-1,-1,-1,-1],"split_conditions":[5.45332E-1,-1.8013386E0,2.9893062E-1,-1.5424849E0,-6.944388E-1,2.2563435E-1,1.1195552E0,-2.2622802E0,-1.0515473E0,-1.165486E0,-9.343891E-2,-1.2350389E-2,6.8923396E-1,9.96858E-1,-1.0561308E0,-2.2345887E-2,-1.2424465E-4,4.551617E-3,3.7400833E-1,-2.0730202E-1,-1.1855791E0,-9.594951E-1,1.12440236E-1,7.335641E-1,2.5147127E-3,-5.032826E-4,7.348182E-3,-1.1259972E-2,2.0865362E0,-1.2756599E-2,-8.241906E-4,1.4118425E-2,-2.6259862E-3,-9.444729E-3,-4.5886117E-1,-4.2806986E-1,-4.3502823E-1,-1.0561308E0,6.668452E-1,-2.427579E-3,-8.597586E-3,-5.0022528E-3,1.9940683E-3,1.1996848E-3,-4.690891E-3,8.074059E-3,1.6551209E-3,1.49382595E-2,9.033756E-3,-1.258585E-3,8.039747E-3,-4.175132E-3,4.963292E-3],"split_indices":[10,9,12,10,12,20,10,9,1,0,7,0,0,10,4,0,0,0,5,7,13,9,0,10,0,0,0,0,20,0,0,0,0,0,2,14,7,4,12,0,0,0,0,0,0,0,0,0,0,0,0,0,0],"split_type":[0,0,0,0,0,0,0,0,0,0,0,0,0,0,0,0,0,0,0,0,0,0,0,0,0,0,0,0,0,0,0,0,0,0,0,0,0,0,0,0,0,0,0,0,0,0,0,0,0,0,0,0,0],"sum_hessian":[6.37E2,4.34E2,2.03E2,5E1,3.84E2,1.41E2,6.2E1,3.2E1,1.8E1,1.14E2,2.7E2,6.8E1,7.3E1,2.5E1,3.7E1,3.1E1,1E0,3E0,1.5E1,1.6E1,9.8E1,2.03E2,6.7E1,6.8E1,5E0,1.9E1,6E0,8E0,2.9E1,1.1E1,4E0,1.1E1,5E0,1.3E1,8.5E1,4.1E1,1.62E2,3.3E1,3.4E1,1E1,5.8E1,2.7E1,2E0,5.1E1,3.4E1,1.8E1,2.3E1,1.02E2,6E1,6E0,2.7E1,2.1E1,1.3E1],"tree_param":{"num_deleted":"0","num_feature":"23","num_nodes":"53","size_leaf_vector":"1"}},{"base_weights":[-7.3808595E-5,-5.771853E-1,3.5561908E-2,-2.0706635E-2,-0E0,1.7599468E-1,-1.8364847E-1,7.6473214E-2,3.0284145E-1,-2.7559552E-1,-7.9482116E-2,2.1574073E-1,-4.4851513E-3,8.831186E-2,3.3859596E-1,-2.947227E-1,-0E0,1.0642931E-2,-1.9421166E-1,-6.345934E-2,2.599954E-1,-1.4604194E-1,6.179297E-2,1.3858482E-1,-5.959381E-3,4.356868E-1,2.2036585E-1,-1.23914415E-2,-2.1566202E-1,-5.028173E-2,1.3216552E-1,-2.083115E-1,1.954187E-3,4.546993E-3,-5.823983E-3,9.884648E-3,-7.91101E-6,2.036112E-4,-7.0275078E-3,-2.5672796E-3,5.3633326E-3,8.008684E-3,4.8060875E-4,1.7021043E-2,7.368078E-3,-1.3173295E-3,9.248153E-3,-8.1138825E-3,-9.597132E-4,-5.7362975E-3,3.0029414E-4,7.6985015E-3,-4.260977E-4,-1.1282353E-2,-5.0791968E-3],"categories":[],"categories_nodes":[],"categories_segments":[],"categories_sizes":[],"default_left":[0,0,0,0,0,0,0,0,0,0,0,0,0,0,0,0,0,0,0,0,0,0,0,0,0,0,0,0,0,0,0,0,0,0,0,0,0,0,0,0,0,0,0,0,0,0,0,0,0,0,0,0,0,0,0],"id":9,"left_children":[1,3,5,-1,-1,7,9,11,13,15,17,19,21,23,25,27,-1,29,31,33,35,37,39,41,-1,43,45,-1,47,49,51,53,-1,-1,-1,-1,-1,-1,-1,-1,-1,-1,-1,-1,-1,-1,-1,-1,-1,-1,-1,-1,-1,-1,-1],"loss_changes":[1.3257333E1,2.8258133E-1,1.8656837E1,0E0,0E0,4.5918894E0,2.196782E0,2.3846622E0,1.151226E0,6.632271E-1,1.195048E0,1.0019848E0,1.2744743E0,3.6371577E-1,1.3687506E0,3.7485695E-1,0E0,4.9569672E-1,2.1073699E-1,2.6499277E-1,4.2217636E-1,3.828814E-1,1.1556281E0,2.2451872E-1,0E0,6.146555E-1,7.788987E-1,0E0,1.3036084E-1,3.0854297E-1,3.0991104E-1,2.3259616E-1,0E0,0E0,0E0,0E0,0E0,0E0,0E0,0E0,0E0,0E0,0E0,0E0,0E0,0E0,0E0,0E0,0E0,0E0,0E0,0E0,0E0,0E0,0E0],"parents":[2147483647,0,0,1,1,2,2,5,5,6,6,7,7,8,8,9,9,10,10,11,11,12,12,13,13,14,14,15,15,17,17,18,18,19,19,20,20,21,21,22,22,23,23,25,25,26,26,28,28,29,29,30,30,31,31],"right_children":[2,4,6,-1,-1,8,10,12,14,16,18,20,22,24,26,28,-1,30,32,34,36,38,40,42,-1,44,46,-1,48,50,52,54,-1,-1,-1,-1,-1,-1,-1,-1,-1,-1,-1,-1,-1,-1,-1,-1,-1,-1,-1,-1,-1,-1,-1],"split_conditions":[-1.5391359E0,5.459502E-1,4.1876617E-1,-2.0706635E-2,-0E0,-2.1614984E-1,-3.6125007E-1,-6.715848E-1,-1.2519954E0,1.4421742E0,1.1587607E0,-1.1128442E0,-8.783961E-1,1.5339104E0,-2.569061E-1,2.2563435E-1,-0E0,7.978179E-1,2.0865362E0,-1.3209094E0,3.5835184E-2,-1.5005271E-1,4.9236423E-1,-5.659864E-1,-5.959381E-3,5.7634133E-1,-1.7348821E0,-1.23914415E-2,1.14973314E-1,1.8855624E-1,1.7335093E0,-1.2700586E0,1.954187E-3,4.546993E-3,-5.823983E-3,9.884648E-3,-7.91101E-6,2.036112E-4,-7.0275078E-3,-2.5672796E-3,5.3633326E-3,8.008684E-3,4.8060875E-4,1.7021043E-2,7.368078E-3,-1.3173295E-3,9.248153E-3,-8.1138825E-3,-9.597132E-4,-5.7362975E-3,3.0029414E-4,7.6985015E-3,-4.260977E-4,-1.1282353E-2,-5.0791968E-3],"split_indices":[10,1,10,0,0,12,13,0,10,0,10,13,12,15,10,20,0,11,20,0,10,0,0,1,0,2,6,0,12,12,14,5,0,0,0,0,0,0,0,0,0,0,0,0,0,0,0,0,0,0,0,0,0,0,0],"split_type":[0,0,0,0,0,0,0,0,0,0,0,0,0,0,0,0,0,0,0,0,0,0,0,0,0,0,0,0,0,0,0,0,0,0,0,0,0,0,0,0,0,0,0,0,0,0,0,0,0,0,0,0,0,0,0],"sum_hessian":[6.39E2,3.6E1,6.03E2,3.5E1,1E0,3.68E2,2.35E2,2.08E2,1.6E2,1.23E2,1.12E2,7.6E1,1.32E2,2.4E1,1.36E2,1.15E2,8E0,6.3E1,4.9E1,1E1,6.6E1,4.2E1,9E1,2.1E1,3E0,7.2E1,6.4E1,6.2E1,5.3E1,4.2E1,2.1E1,4.7E1,2E0,3E0,7E0,6.1E1,5E0,1.1E1,3.1E1,3.6E1,5.4E1,1.1E1,1E1,5.7E1,1.5E1,9E0,5.5E1,4.8E1,5E0,1.4E1,2.8E1,1.3E1,8E0,1.4E1,3.3E1],"tree_param":{"num_deleted":"0","num_feature":"23","num_nodes":"55","size_leaf_vector":"1"}},{"base_weights":[-1.0696261E-3,1.19450815E-1,-1.6119356E-1,-4.5759505E-1,2.0967512E-1,-2.1880403E-1,-3.436693E-2,-5.4444563E-1,-1.9673765E-1,1.0801386E-1,3.106665E-1,-1.2499111E-1,-2.8546166E-1,1.2273383E-2,-9.4743E-3,-2.0063508E-2,-1.1996108E-1,-1.1757213E-2,-1.1071818E-2,-9.681562E-2,1.4423233E-1,9.989964E-2,3.4167016E-1,-9.643608E-3,-4.5375593E-2,4.9597556E-3,-2.9602185E-1,1.0223981E-1,-1.074843E-1,-9.444897E-3,4.2653074E-3,1.963602E-3,-5.587794E-3,-7.2202836E-3,6.809949E-4,2.240887E-1,6.548914E-2,1.5534537E-1,-5.7317438E-3,2.4881679E-1,4.2351374E-1,1.8222533E-2,-6.5215575E-3,-1.0973649E-2,-1.6169862E-1,1.6853718E-1,1.4487345E-3,-6.848994E-3,7.5027783E-4,4.901148E-3,-2.9486166E-3,3.4589611E-3,1.2295067E-2,7.336958E-3,4.2818184E-4,9.466012E-3,-0E0,1.2036148E-2,5.018416E-3,1.7998334E-2,9.976469E-3,6.1861584E-3,-1.1309278E-3,-6.536413E-3,1.7733787E-3,-4.3034955E-4,7.2206864E-3],"categories":[],"categories_nodes":[],"categories_segments":[],"categories_sizes":[],"default_left":[0,0,0,0,0,0,0,0,0,0,0,0,0,0,0,0,0,0,0,0,0,0,0,0,0,0,0,0,0,0,0,0,0,0,0,0,0,0,0,0,0,0,0,0,0,0,0,0,0,0,0,0,0,0,0,0,0,0,0,0,0,0,0,0,0,0,0],"id":10,"left_children":[1,3,5,7,9,11,13,15,17,19,21,23,25,27,-1,-1,29,-1,31,33,35,37,39,-1,41,-1,43,45,47,-1,-1,-1,-1,-1,49,51,53,55,-1,57,59,61,-1,-1,63,65,-1,-1,-1,-1,-1,-1,-1,-1,-1,-1,-1,-1,-1,-1,-1,-1,-1,-1,-1,-1,-1],"loss_changes":[1.2818118E1,1.9825184E1,2.0494213E0,9.319773E-1,3.2804766E0,1.127964E0,1.0393736E0,2.8593254E-1,3.6026472E-1,1.2608858E0,9.7304153E-1,9.6191895E-1,5.858383E-1,8.5095763E-1,0E0,0E0,2.272448E-1,0E0,1.0862685E-1,2.9295272E-1,8.450897E-1,3.8086528E-1,8.500252E-1,0E0,5.373598E-1,0E0,1.363411E-1,1.5209085E-1,4.0464473E-1,0E0,0E0,0E0,0E0,0E0,1.9487847E-1,1.0102637E0,5.458392E-1,3.4648362E-1,0E0,5.8399534E-1,6.110029E-1,3.4745628E-1,0E0,0E0,1.1559993E-1,1.6321522E-1,0E0,0E0,0E0,0E0,0E0,0E0,0E0,0E0,0E0,0E0,0E0,0E0,0E0,0E0,0E0,0E0,0E0,0E0,0E0,0E0,0E0],"parents":[2147483647,0,0,1,1,2,2,3,3,4,4,5,5,6,6,7,7,8,8,9,9,10,10,11,11,12,12,13,13,16,16,18,18,19,19,20,20,21,21,22,22,24,24,26,26,27,27,28,28,34,34,35,35,36,36,37,37,39,39,40,40,41,41,44,44,45,45],"right_children":[2,4,6,8,10,12,14,16,18,20,22,24,26,28,-1,-1,30,-1,32,34,36,38,40,-1,42,-1,44,46,48,-1,-1,-1,-1,-1,50,52,54,56,-1,58,60,62,-1,-1,64,66,-1,-1,-1,-1,-1,-1,-1,-1,-1,-1,-1,-1,-1,-1,-1,-1,-1,-1,-1,-1,-1],"split_conditions":[1.9133553E-2,-1.8013386E0,2.253477E-1,-2.2622802E0,-2.1614984E-1,5.8973974E-1,2.3216927E0,1.2502705E0,2.4921209E-1,-9.887705E-1,-1.0943847E0,-6.058144E-1,-1.4506401E0,1.1470916E0,-9.4743E-3,-2.0063508E-2,-1.23207E0,-1.1757213E-2,9.064204E-1,1.4323422E-1,-5.4484546E-1,1.5339104E0,5.9278462E-2,-9.643608E-3,-4.2806986E-1,4.9597556E-3,-1.4304534E-1,5.8311254E-1,1.7337976E0,-9.444897E-3,4.2653074E-3,1.963602E-3,-5.587794E-3,-7.2202836E-3,-1.1337883E0,-8.4084487E-1,-1.1715262E0,-4.2806986E-1,-5.7317438E-3,-4.3502823E-1,3.404619E-1,1.342873E-1,-6.5215575E-3,-1.0973649E-2,3.7461787E-1,2.9893062E-1,1.4487345E-3,-6.848994E-3,7.5027783E-4,4.901148E-3,-2.9486166E-3,3.4589611E-3,1.2295067E-2,7.336958E-3,4.2818184E-4,9.466012E-3,-0E0,1.2036148E-2,5.018416E-3,1.7998334E-2,9.976469E-3,6.1861584E-3,-1.1309278E-3,-6.536413E-3,1.7733787E-3,-4.3034955E-4,7.2206864E-3],"split_indices":[8,9,12,9,12,7,15,6,6,12,9,1,1,8,0,0,7,0,6,5,8,15,5,0,14,0,13,8,12,0,0,0,0,0,2,9,2,14,0,7,2,7,0,0,5,12,0,0,0,0,0,0,0,0,0,0,0,0,0,0,0,0,0,0,0,0,0],"split_type":[0,0,0,0,0,0,0,0,0,0,0,0,0,0,0,0,0,0,0,0,0,0,0,0,0,0,0,0,0,0,0,0,0,0,0,0,0,0,0,0,0,0,0,0,0,0,0,0,0,0,0,0,0,0,0,0,0,0,0,0,0,0,0,0,0,0,0],"sum_hessian":[6.61E2,3.77E2,2.84E2,5E1,3.27E2,1.94E2,9E1,3.6E1,1.4E1,1.65E2,1.62E2,8.3E1,1.11E2,7.6E1,1.4E1,3.3E1,3E0,7E0,7E0,2.4E1,1.41E2,2.2E1,1.4E2,2.7E1,5.6E1,2E0,1.09E2,4.4E1,3.2E1,2E0,1E0,5E0,2E0,1.1E1,1.3E1,6.8E1,7.3E1,1.9E1,3E0,6.9E1,7.1E1,3.9E1,1.7E1,9.4E1,1.5E1,1.9E1,2.5E1,1.9E1,1.3E1,5E0,8E0,3.6E1,3.2E1,1.8E1,5.5E1,1E1,9E0,3.4E1,3.5E1,4E1,3.1E1,9E0,3E1,1.4E1,1E0,3E0,1.6E1],"tree_param":{"num_deleted":"0","num_feature":"23","num_nodes":"67","size_leaf_vector":"1"}},{"base_weights":[-2.734176E-3,-5.1810753E-1,3.287289E-2,-1.853936E-2,-0E0,1.8944483E-1,-1.5797032E-1,-5.149905E-2,2.2236587E-1,-2.4622062E-2,-2.0457236E-1,-1.7949872E-1,1.1908614E-1,2.769764E-1,3.2739013E-2,8.953335E-2,-1.5053207E-1,-2.5891423E-1,-9.748556E-2,4.0143793E-3,-2.5379747E-1,7.133354E-3,-5.594137E-2,3.3819661E-3,3.1002596E-1,-5.619372E-3,7.370757E-2,1.1541417E-1,-6.3970233E-3,-9.695448E-3,-6.0163714E-2,-1.1132562E-2,-1.8160467E-1,-4.465786E-3,-2.0988072E-1,-1.0952534E-2,-0E0,-6.962876E-3,4.31608E-3,7.742891E-3,-5.3241835E-3,8.629756E-3,1.4237686E-2,5.546499E-3,-1.3707862E-3,4.8254593E-3,-2.2056252E-3,2.8052693E-3,-4.3586935E-3,-7.2705247E-3,1.2758419E-6,-2.7366115E-3,1.4481691E-3,-9.949038E-3,-3.6379714E-3],"categories":[],"categories_nodes":[],"categories_segments":[],"categories_sizes":[],"default_left":[0,0,0,0,0,0,0,0,0,0,0,0,0,0,0,0,0,0,0,0,0,0,0,0,0,0,0,0,0,0,0,0,0,0,0,0,0,0,0,0,0,0,0,0,0,0,0,0,0,0,0,0,0,0,0],"id":11,"left_children":[1,3,5,-1,-1,7,9,11,13,15,17,19,21,23,25,27,29,31,33,-1,35,-1,37,39,41,-1,43,45,-1,-1,47,-1,49,51,53,-1,-1,-1,-1,-1,-1,-1,-1,-1,-1,-1,-1,-1,-1,-1,-1,-1,-1,-1,-1],"loss_changes":[1.1497526E1,2.1119118E-1,1.7483421E1,0E0,0E0,2.5844421E0,1.6069927E0,9.0058154E-1,2.8912458E0,1.0396346E0,1.0583525E0,5.712458E-1,2.9139698E-1,1.9518452E0,5.277555E-1,2.8918675E-1,3.356132E-1,4.4651508E-1,6.9332504E-1,0E0,2.6177943E-1,0E0,2.109789E-1,9.212019E-1,9.8475075E-1,0E0,5.5223894E-1,1.627621E-1,0E0,0E0,2.2263244E-1,0E0,3.0312634E-1,1.4202894E-1,1.5718365E-1,0E0,0E0,0E0,0E0,0E0,0E0,0E0,0E0,0E0,0E0,0E0,0E0,0E0,0E0,0E0,0E0,0E0,0E0,0E0,0E0],"parents":[2147483647,0,0,1,1,2,2,5,5,6,6,7,7,8,8,9,9,10,10,11,11,12,12,13,13,14,14,15,15,16,16,17,17,18,18,20,20,22,22,23,23,24,24,26,26,27,27,30,30,32,32,33,33,34,34],"right_children":[2,4,6,-1,-1,8,10,12,14,16,18,20,22,24,26,28,30,32,34,-1,36,-1,38,40,42,-1,44,46,-1,-1,48,-1,50,52,54,-1,-1,-1,-1,-1,-1,-1,-1,-1,-1,-1,-1,-1,-1,-1,-1,-1,-1,-1,-1],"split_conditions":[-1.5370573E0,6.111027E-1,1.9133553E-2,-1.853936E-2,-0E0,-1.5484483E0,4.8389676E-1,1.4661877E-1,6.0085937E-2,1.4352493E-1,2.253477E-1,-1.1447629E0,1.5339104E0,-9.5197904E-1,-8.461495E-1,1.2598873E0,-6.7111784E-1,2.2563435E-1,1.2401739E0,4.0143793E-3,-3.219253E-2,7.133354E-3,3.95553E-1,-3.6073783E-1,1.14973314E-1,-5.619372E-3,5.043367E-1,1.1159153E0,-6.3970233E-3,-9.695448E-3,1.210766E0,-1.1132562E-2,2.6093872E-2,-8.097562E-2,-2.1502945E-1,-1.0952534E-2,-0E0,-6.962876E-3,4.31608E-3,7.742891E-3,-5.3241835E-3,8.629756E-3,1.4237686E-2,5.546499E-3,-1.3707862E-3,4.8254593E-3,-2.2056252E-3,2.8052693E-3,-4.3586935E-3,-7.2705247E-3,1.2758419E-6,-2.7366115E-3,1.4481691E-3,-9.949038E-3,-3.6379714E-3],"split_indices":[10,2,8,0,0,11,10,5,10,0,12,0,15,12,13,8,2,20,10,0,12,0,3,0,12,0,10,14,0,0,0,0,0,0,5,0,0,0,0,0,0,0,0,0,0,0,0,0,0,0,0,0,0,0,0],"split_type":[0,0,0,0,0,0,0,0,0,0,0,0,0,0,0,0,0,0,0,0,0,0,0,0,0,0,0,0,0,0,0,0,0,0,0,0,0,0,0,0,0,0,0,0,0,0,0,0,0,0,0,0,0,0,0],"sum_hessian":[6.21E2,3.9E1,5.82E2,3.8E1,1E0,3.2E2,2.62E2,3.8E1,2.82E2,6.9E1,1.93E2,2.2E1,1.6E1,2.18E2,6.4E1,3.6E1,3.3E1,1.26E2,6.7E1,4E0,1.8E1,1.1E1,5E0,2.4E1,1.94E2,1E1,5.4E1,3.4E1,2E0,1.2E1,2.1E1,6.8E1,5.8E1,3.8E1,2.9E1,1.4E1,4E0,3E0,2E0,1E1,1.4E1,1.21E2,7.3E1,3.1E1,2.3E1,3.1E1,3E0,6E0,1.5E1,5.1E1,7E0,1.5E1,2.3E1,1.5E1,1.4E1],"tree_param":{"num_deleted":"0","num_feature":"23","num_nodes":"55","size_leaf_vector":"1"}},{"base_weights":[-8.302701E-3,9.110985E-2,-1.9973552E-1,-5.1444364E-1,1.5726006E-1,-2.5066102E-1,-8.932989E-2,-1.8641625E-2,-1.9282976E-3,2.1273382E-1,-3.607367E-2,-1.1251126E-2,-1.774053E-1,-1.0787938E-4,-1.6501933E-1,-1.1128181E-2,2.5541386E-1,-1.08039305E-1,1.0752178E-1,-1.9684236E-1,2.3778328E-3,-1.1532765E-1,-1.0789978E-2,1.3355168E-2,-1.1499741E-1,8.6123094E-2,3.009367E-1,1.13803465E-2,-1.7146876E-1,-1.8095908E-3,1.557303E-1,2.3783765E-4,-2.0407969E-1,-5.153999E-3,9.126532E-4,1.6343147E-3,-6.616564E-3,5.950591E-3,-5.1453547E-4,1.3642087E-2,7.863889E-3,6.2340223E-3,-2.8224469E-3,-7.856726E-3,-1.5497065E-4,7.361829E-3,3.6682354E-4,-5.144595E-3,-9.324086E-3],"categories":[],"categories_nodes":[],"categories_segments":[],"categories_sizes":[],"default_left":[0,0,0,0,0,0,0,0,0,0,0,0,0,0,0,0,0,0,0,0,0,0,0,0,0,0,0,0,0,0,0,0,0,0,0,0,0,0,0,0,0,0,0,0,0,0,0,0,0],"id":12,"left_children":[1,3,5,7,9,11,13,-1,-1,15,17,-1,19,-1,21,23,25,27,29,31,-1,33,-1,-1,35,37,39,41,43,-1,45,-1,47,-1,-1,-1,-1,-1,-1,-1,-1,-1,-1,-1,-1,-1,-1,-1,-1],"loss_changes":[1.2436742E1,1.7290325E1,1.1890335E0,2.5201702E-1,4.19582E0,6.5032196E-1,4.6223748E-1,0E0,0E0,2.918909E0,9.216961E-1,0E0,4.0729737E-1,0E0,1.7839396E-1,2.0582626E0,1.8837471E0,4.6963203E-1,2.4892142E-1,1.3013244E-1,0E0,1.6009843E-1,0E0,0E0,5.123771E-1,4.9718687E-1,1.1586456E0,3.6117122E-1,3.253789E-1,0E0,1.6100734E-1,0E0,1.5432692E-1,0E0,0E0,0E0,0E0,0E0,0E0,0E0,0E0,0E0,0E0,0E0,0E0,0E0,0E0,0E0,0E0],"parents":[2147483647,0,0,1,1,2,2,3,3,4,4,5,5,6,6,9,9,10,10,12,12,14,14,15,15,16,16,17,17,18,18,19,19,21,21,24,24,25,25,26,26,27,27,28,28,30,30,32,32],"right_children":[2,4,6,8,10,12,14,-1,-1,16,18,-1,20,-1,22,24,26,28,30,32,-1,34,-1,-1,36,38,40,42,44,-1,46,-1,48,-1,-1,-1,-1,-1,-1,-1,-1,-1,-1,-1,-1,-1,-1,-1,-1],"split_conditions":[5.45332E-1,-2.0688787E0,2.6213914E-1,2.3875228E-1,1.9133553E-2,2.2563435E-1,1.1587607E0,-1.8641625E-2,-1.9282976E-3,-8.783961E-1,1.14973314E-1,-1.1251126E-2,6.8923396E-1,-1.0787938E-4,1.7266903E0,-1.165486E0,-9.594951E-1,-5.334306E-1,2.5516486E-1,-1.6075794E0,2.3778328E-3,1.1812359E0,-1.0789978E-2,1.3355168E-2,-7.368669E-1,-4.2806986E-1,-5.45952E-1,-7.4191344E-1,1.3454664E0,-1.8095908E-3,-4.2806986E-1,2.3783765E-4,1.0048475E0,-5.153999E-3,9.126532E-4,1.6343147E-3,-6.616564E-3,5.950591E-3,-5.1453547E-4,1.3642087E-2,7.863889E-3,6.2340223E-3,-2.8224469E-3,-7.856726E-3,-1.5497065E-4,7.361829E-3,3.6682354E-4,-5.144595E-3,-9.324086E-3],"split_indices":[10,9,12,3,8,20,10,0,0,12,12,0,0,0,10,0,9,0,9,0,0,9,0,0,14,14,10,2,0,0,14,0,9,0,0,0,0,0,0,0,0,0,0,0,0,0,0,0,0],"split_type":[0,0,0,0,0,0,0,0,0,0,0,0,0,0,0,0,0,0,0,0,0,0,0,0,0,0,0,0,0,0,0,0,0,0,0,0,0,0,0,0,0,0,0,0,0,0,0,0,0],"sum_hessian":[6.5E2,4.28E2,2.22E2,4.1E1,3.87E2,1.5E2,7.2E1,3.9E1,2E0,3.01E2,8.6E1,7.3E1,7.7E1,3.5E1,3.7E1,4.8E1,2.53E2,5.8E1,2.8E1,7.2E1,5E0,3E1,7E0,9E0,3.9E1,5.5E1,1.98E2,2E1,3.8E1,6E0,2.2E1,2E0,7E1,2.5E1,5E0,1.2E1,2.7E1,3E1,2.5E1,8.8E1,1.1E2,7E0,1.3E1,2.8E1,1E1,1.5E1,7E0,4E1,3E1],"tree_param":{"num_deleted":"0","num_feature":"23","num_nodes":"49","size_leaf_vector":"1"}},{"base_weights":[-4.3311543E-3,-4.199845E-1,3.3228565E-2,-4.9819145E-1,-1.9800036E-1,1.9095036E-1,-1.4580281E-1,-1.8231466E-2,-1.3581382E-1,-1.4862036E-3,-2.7128893E-1,2.3760138E-1,7.3961206E-3,-1.9634043E-1,-2.3144446E-2,-1.02307E-2,4.366709E-3,-1.1761791E-2,-0E0,8.29984E-2,3.0046546E-1,-6.4758055E-2,1.1830162E-1,-1.0868322E-1,-2.4580629E-1,2.0457767E-2,-1.15648685E-2,-5.7957056E-3,1.3232444E-1,3.9097467E-1,1.6174656E-1,4.8199818E-2,-1.3353099E-1,3.0041903E-1,-0E0,-2.38769E-2,-2.1475446E-1,-2.633838E-1,-1.4511002E-2,5.743913E-3,-1.6419569E-2,6.0336776E-3,-3.7763906E-3,-2.0627019E-3,1.3902073E-2,-1.108024E-3,8.773927E-3,-5.008037E-3,4.1747657E-3,-5.3414446E-3,3.2755903E-3,4.1509137E-4,1.4004811E-2,2.795914E-3,-2.3280487E-3,-4.1786954E-3,1.984952E-3,2.6697172E-3,-8.461383E-3,-1.08762495E-2,-7.1210037E-3,3.2805454E-3,-4.1347374E-3,5.710565E-3,-1.5228248E-3],"categories":[],"categories_nodes":[],"categories_segments":[],"categories_sizes":[],"default_left":[0,0,0,0,0,0,0,0,0,0,0,0,0,0,0,0,0,0,0,0,0,0,0,0,0,0,0,0,0,0,0,0,0,0,0,0,0,0,0,0,0,0,0,0,0,0,0,0,0,0,0,0,0,0,0,0,0,0,0,0,0,0,0,0,0],"id":13,"left_children":[1,3,5,7,9,11,13,-1,15,-1,17,19,21,23,25,-1,-1,-1,-1,27,29,31,33,35,37,39,-1,-1,41,43,45,47,49,51,53,55,57,59,61,-1,63,-1,-1,-1,-1,-1,-1,-1,-1,-1,-1,-1,-1,-1,-1,-1,-1,-1,-1,-1,-1,-1,-1,-1,-1],"loss_changes":[9.887251E0,6.938553E-1,1.638147E1,1.3678741E-1,1.3943058E-1,2.6145468E0,1.6542268E0,0E0,2.549595E-1,0E0,1.8713266E-1,2.310254E0,5.3299385E-1,7.548294E-1,1.1330818E0,0E0,0E0,0E0,0E0,9.307951E-1,2.0282202E0,3.2504094E-1,5.7676697E-1,6.206201E-1,4.563818E-1,4.028856E-1,0E0,0E0,6.358993E-1,3.5892296E-1,1.2636651E0,2.3396581E-1,1.3783902E-1,2.5381613E-1,1.0069686E-1,3.435676E-1,2.917248E-1,1.702342E-1,1.3682187E-1,0E0,2.832702E-1,0E0,0E0,0E0,0E0,0E0,0E0,0E0,0E0,0E0,0E0,0E0,0E0,0E0,0E0,0E0,0E0,0E0,0E0,0E0,0E0,0E0,0E0,0E0,0E0],"parents":[2147483647,0,0,1,1,2,2,3,3,4,4,5,5,6,6,8,8,10,10,11,11,12,12,13,13,14,14,19,19,20,20,21,21,22,22,23,23,24,24,25,25,28,28,29,29,30,30,31,31,32,32,33,33,34,34,35,35,36,36,37,37,38,38,40,40],"right_children":[2,4,6,8,10,12,14,-1,16,-1,18,20,22,24,26,-1,-1,-1,-1,28,30,32,34,36,38,40,-1,-1,42,44,46,48,50,52,54,56,58,60,62,-1,64,-1,-1,-1,-1,-1,-1,-1,-1,-1,-1,-1,-1,-1,-1,-1,-1,-1,-1,-1,-1,-1,-1,-1,-1],"split_conditions":[-1.8013386E0,-2.2622802E0,1.9133553E-2,-1.1088245E0,-2.1447966E0,7.997332E-1,2.9893062E-1,-1.8231466E-2,8.2393426E-1,-1.4862036E-3,1.069158E0,-8.4084487E-1,-1.425669E-1,4.758766E-1,2.1759372E0,-1.02307E-2,4.366709E-3,-1.1761791E-2,-0E0,-9.5197904E-1,2.6549593E-1,-3.211651E-1,1.1000279E0,8.571928E-1,1.4421742E0,2.0367636E-4,-1.15648685E-2,-5.7957056E-3,1.5339104E0,-1.1727278E0,-2.0635394E-2,-6.94361E-2,1.182827E0,8.853754E-1,-4.3204966E-1,-7.50658E-1,2.1993144E-1,2.2563435E-1,-2.8973275E-1,5.743913E-3,-7.4191344E-1,6.0336776E-3,-3.7763906E-3,-2.0627019E-3,1.3902073E-2,-1.108024E-3,8.773927E-3,-5.008037E-3,4.1747657E-3,-5.3414446E-3,3.2755903E-3,4.1509137E-4,1.4004811E-2,2.795914E-3,-2.3280487E-3,-4.1786954E-3,1.984952E-3,2.6697172E-3,-8.461383E-3,-1.08762495E-2,-7.1210037E-3,3.2805454E-3,-4.1347374E-3,5.710565E-3,-1.5228248E-3],"split_indices":[9,9,8,8,11,11,12,0,0,0,0,9,12,7,19,0,0,0,0,12,11,7,11,11,0,3,0,0,15,12,9,9,1,11,8,15,9,20,12,0,2,0,0,0,0,0,0,0,0,0,0,0,0,0,0,0,0,0,0,0,0,0,0,0,0],"split_type":[0,0,0,0,0,0,0,0,0,0,0,0,0,0,0,0,0,0,0,0,0,0,0,0,0,0,0,0,0,0,0,0,0,0,0,0,0,0,0,0,0,0,0,0,0,0,0,0,0,0,0,0,0,0,0,0,0,0,0,0,0,0,0,0,0],"sum_hessian":[6.28E2,5.1E1,5.77E2,3.6E1,1.5E1,3.07E2,2.7E2,3.3E1,3E0,6E0,9E0,2.44E2,6.3E1,1.9E2,8E1,2E0,1E0,7E0,2E0,7.2E1,1.72E2,3.8E1,2.5E1,7.1E1,1.19E2,7.1E1,9E0,1.1E1,6.1E1,1.02E2,7E1,1.4E1,2.4E1,9E0,1.6E1,4.1E1,3E1,1.1E2,9E0,1.4E1,5.7E1,5.3E1,8E0,1E0,1.01E2,2.2E1,4.8E1,3E0,1.1E1,2.3E1,1E0,3E0,6E0,7E0,9E0,1.9E1,2.2E1,2E0,2.8E1,5.7E1,5.3E1,4E0,5E0,6E0,5.1E1],"tree_param":{"num_deleted":"0","num_feature":"23","num_nodes":"65","size_leaf_vector":"1"}},{"base_weights":[6.775688E-3,-4.343668E-1,4.2965036E-2,-1.7850704E-2,-2.0253299E-1,1.9608001E-1,-1.4000465E-1,-2.8781268E-1,-0E0,1.02241345E-1,2.8515413E-1,-1.8686208E-1,1.8356444E-2,-0E0,-1.12547735E-2,1.3955224E-1,-6.335604E-2,3.1287792E-1,2.4558627E-4,-1.0228577E-1,-2.4209803E-1,1.0754031E-1,-1.18831865E-1,-0E0,2.0915487E-1,-1.15688436E-1,8.732387E-4,1.5027156E-1,3.6100182E-1,-2.373259E-2,-1.8834387E-1,-1.0068178E-2,-1.8134731E-1,1.297362E-1,-1.4992516E-3,-7.913226E-3,-1.7791943E-3,7.734305E-3,-2.3072127E-3,9.082253E-3,-7.675577E-4,1.0353384E-3,-5.687208E-3,7.7686817E-3,-1.7301725E-3,1.578201E-2,8.580915E-3,-5.965065E-3,7.253002E-4,-1.0187802E-2,-3.8813513E-3,-3.734266E-3,-8.214894E-3,2.3079042E-3,8.981419E-3],"categories":[],"categories_nodes":[],"categories_segments":[],"categories_sizes":[],"default_left":[0,0,0,0,0,0,0,0,0,0,0,0,0,0,0,0,0,0,0,0,0,0,0,0,0,0,0,0,0,0,0,0,0,0,0,0,0,0,0,0,0,0,0,0,0,0,0,0,0,0,0,0,0,0,0],"id":14,"left_children":[1,3,5,-1,7,9,11,13,-1,15,17,19,21,-1,-1,23,25,27,-1,29,31,33,35,37,39,41,-1,43,45,47,49,-1,51,53,-1,-1,-1,-1,-1,-1,-1,-1,-1,-1,-1,-1,-1,-1,-1,-1,-1,-1,-1,-1,-1],"loss_changes":[1.0006677E1,6.0690403E-1,1.633774E1,0E0,2.7499503E-1,2.5713835E0,1.9921093E0,1.1255872E-1,0E0,9.940094E-1,1.2100468E0,8.8844156E-1,7.7049124E-1,0E0,0E0,1.262018E0,1.4973034E-1,1.0138998E0,0E0,5.433191E-1,2.1393633E-1,1.4552861E-1,1.3375732E-1,6.6700345E-1,1.0384929E0,1.5308315E-1,0E0,5.5628216E-1,9.258213E-1,3.235191E-1,2.2567368E-1,0E0,1.5736651E-1,2.216124E-1,0E0,0E0,0E0,0E0,0E0,0E0,0E0,0E0,0E0,0E0,0E0,0E0,0E0,0E0,0E0,0E0,0E0,0E0,0E0,0E0,0E0],"parents":[2147483647,0,0,1,1,2,2,4,4,5,5,6,6,7,7,9,9,10,10,11,11,12,12,15,15,16,16,17,17,19,19,20,20,21,21,22,22,23,23,24,24,25,25,27,27,28,28,29,29,30,30,32,32,33,33],"right_children":[2,4,6,-1,8,10,12,14,-1,16,18,20,22,-1,-1,24,26,28,-1,30,32,34,36,38,40,42,-1,44,46,48,50,-1,52,54,-1,-1,-1,-1,-1,-1,-1,-1,-1,-1,-1,-1,-1,-1,-1,-1,-1,-1,-1,-1,-1],"split_conditions":[-1.8013386E0,-2.2622802E0,1.9133553E-2,-1.7850704E-2,3.7400833E-1,-2.1614984E-1,6.668452E-1,-1.6043721E0,-0E0,-2.0645805E-1,1.1000279E0,7.2646207E-1,1.1195552E0,-0E0,-1.12547735E-2,-9.041296E-1,-7.3113525E-1,-8.651369E-1,2.4558627E-4,7.801372E-2,2.2563435E-1,2.3707983E0,-4.925984E-1,-7.126606E-1,3.5835184E-2,2.966883E-1,8.732387E-4,8.186275E-1,2.4278572E-1,2.7192593E-1,-5.3260285E-1,-1.0068178E-2,1.0219437E0,5.664747E-1,-1.4992516E-3,-7.913226E-3,-1.7791943E-3,7.734305E-3,-2.3072127E-3,9.082253E-3,-7.675577E-4,1.0353384E-3,-5.687208E-3,7.7686817E-3,-1.7301725E-3,1.578201E-2,8.580915E-3,-5.965065E-3,7.253002E-4,-1.0187802E-2,-3.8813513E-3,-3.734266E-3,-8.214894E-3,2.3079042E-3,8.981419E-3],"split_indices":[9,9,8,0,5,12,12,2,0,8,11,10,10,0,0,9,2,9,0,5,20,2,4,6,10,11,0,19,11,11,3,0,9,11,0,0,0,0,0,0,0,0,0,0,0,0,0,0,0,0,0,0,0,0,0],"split_type":[0,0,0,0,0,0,0,0,0,0,0,0,0,0,0,0,0,0,0,0,0,0,0,0,0,0,0,0,0,0,0,0,0,0,0,0,0,0,0,0,0,0,0,0,0,0,0,0,0,0,0,0,0,0,0],"sum_hessian":[6.26E2,4.6E1,5.8E2,3.3E1,1.3E1,3.16E2,2.64E2,9E0,4E0,1.56E2,1.6E2,2.04E2,6E1,1E0,8E0,1.28E2,2.8E1,1.45E2,1.5E1,8.3E1,1.21E2,3.7E1,2.3E1,4.3E1,8.5E1,1.8E1,1E1,3.5E1,1.1E2,4.5E1,3.8E1,6.5E1,5.6E1,3.3E1,4E0,7E0,1.6E1,9E0,3.4E1,7E1,1.5E1,4E0,1.4E1,2.6E1,9E0,5.9E1,5.1E1,1E1,3.5E1,1.4E1,2.4E1,2.6E1,3E1,2.4E1,9E0],"tree_param":{"num_deleted":"0","num_feature":"23","num_nodes":"55","size_leaf_vector":"1"}},{"base_weights":[-4.2476146E-3,1.014869E-1,-1.3734552E-1,-3.8593867E-1,1.7721052E-1,-1.8890837E-1,-3.7103776E-2,-1.6146595E-2,-1.5453555E-1,8.866141E-2,2.6231256E-1,-1.0808069E-1,-2.3929715E-1,1.4261554E-2,-1.7600182E-1,-2.175928E-1,3.7914482E-3,2.3197855E-1,1.4430387E-2,4.4177327E-1,2.0481229E-1,7.189223E-3,-2.0518818E-1,-2.5377622E-1,-1.0567654E-3,3.735926E-2,-5.5018626E-3,-7.579546E-3,9.4865105E-4,-9.092704E-3,-0E0,-8.3990015E-2,2.855558E-1,5.505173E-2,-1.1749961E-1,-0E0,4.563402E-1,1.4019644E-1,3.672157E-1,4.5718614E-2,-3.9025538E-3,-8.408574E-3,8.2724926E-4,-3.059488E-1,-1.9261926E-1,-1.9276206E-3,7.8177385E-2,2.8212597E-3,-5.9017595E-3,1.1249129E-2,9.209399E-4,-1.9055346E-3,5.0987387E-3,-7.4542933E-3,-1.9368245E-3,1.6511284E-2,-0E0,6.0342783E-3,4.4494277E-4,1.3301401E-2,-0E0,-2.9425547E-3,3.4472574E-3,-0E0,-1.0938809E-2,4.949935E-4,-7.1050883E-3,5.289966E-3,9.378863E-4],"categories":[],"categories_nodes":[],"categories_segments":[],"categories_sizes":[],"default_left":[0,0,0,0,0,0,0,0,0,0,0,0,0,0,0,0,0,0,0,0,0,0,0,0,0,0,0,0,0,0,0,0,0,0,0,0,0,0,0,0,0,0,0,0,0,0,0,0,0,0,0,0,0,0,0,0,0,0,0,0,0,0,0,0,0,0,0,0,0],"id":15,"left_children":[1,3,5,7,9,11,13,-1,15,17,19,21,23,25,27,29,-1,31,33,35,37,39,41,43,-1,45,-1,-1,-1,-1,-1,47,49,51,53,-1,55,57,59,61,-1,-1,-1,63,65,-1,67,-1,-1,-1,-1,-1,-1,-1,-1,-1,-1,-1,-1,-1,-1,-1,-1,-1,-1,-1,-1,-1,-1],"loss_changes":[9.066424E0,1.3313818E1,1.4425626E0,6.776109E-1,2.2773905E0,6.901188E-1,7.298262E-1,0E0,2.8662664E-1,1.6246369E0,1.4248695E0,8.671276E-1,3.0374527E-1,2.8790587E-1,2.5427586E-1,1.16829515E-1,0E0,9.448905E-1,5.6349176E-1,2.6927423E-1,1.1575298E0,1.6341269E-1,3.630842E-1,1.9836664E-1,0E0,2.5967234E-1,0E0,0E0,0E0,0E0,0E0,1.4759605E-1,3.7538862E-1,8.297613E-1,1.0090232E-1,0E0,2.8519297E-1,3.4983373E-1,1.7660236E-1,2.0907885E-1,0E0,0E0,0E0,1.2033033E-1,1.3804948E-1,0E0,1.542067E-1,0E0,0E0,0E0,0E0,0E0,0E0,0E0,0E0,0E0,0E0,0E0,0E0,0E0,0E0,0E0,0E0,0E0,0E0,0E0,0E0,0E0,0E0],"parents":[2147483647,0,0,1,1,2,2,3,3,4,4,5,5,6,6,8,8,9,9,10,10,11,11,12,12,13,13,14,14,15,15,17,17,18,18,19,19,20,20,21,21,22,22,23,23,25,25,31,31,32,32,33,33,34,34,36,36,37,37,38,38,39,39,43,43,44,44,46,46],"right_children":[2,4,6,8,10,12,14,-1,16,18,20,22,24,26,28,30,-1,32,34,36,38,40,42,44,-1,46,-1,-1,-1,-1,-1,48,50,52,54,-1,56,58,60,62,-1,-1,-1,64,66,-1,68,-1,-1,-1,-1,-1,-1,-1,-1,-1,-1,-1,-1,-1,-1,-1,-1,-1,-1,-1,-1,-1,-1],"split_conditions":[1.9133553E-2,-1.8013386E0,1.14973314E-1,-2.211259E0,-2.5294128E-1,5.8311254E-1,1.7283708E0,-1.6146595E-2,7.772196E-1,-6.8194634E-1,-5.143233E-1,7.099398E-2,1.4421742E0,2.3216927E0,1.8935323E0,1.069158E0,3.7914482E-3,-1.3302436E0,-2.0645805E-1,-1.1088245E0,3.0625343E-1,-4.2806986E-1,2.2563435E-1,2.2563435E-1,-1.0567654E-3,4.4609645E-1,-5.5018626E-3,-7.579546E-3,9.4865105E-4,-9.092704E-3,-0E0,-1.3209094E0,-9.366225E-2,5.0617963E-1,-9.71976E-1,-0E0,1.7335093E0,9.36666E-1,8.947897E-1,-5.8223E-1,-3.9025538E-3,-8.408574E-3,8.2724926E-4,-1.4616389E0,-1.6075794E0,-1.9276206E-3,1.2187171E0,2.8212597E-3,-5.9017595E-3,1.1249129E-2,9.209399E-4,-1.9055346E-3,5.0987387E-3,-7.4542933E-3,-1.9368245E-3,1.6511284E-2,-0E0,6.0342783E-3,4.4494277E-4,1.3301401E-2,-0E0,-2.9425547E-3,3.4472574E-3,-0E0,-1.0938809E-2,4.949935E-4,-7.1050883E-3,5.289966E-3,9.378863E-4],"split_indices":[8,9,12,9,12,8,7,0,12,0,15,0,0,15,13,0,0,3,8,8,5,14,20,20,0,12,0,0,0,0,0,0,8,0,3,0,14,4,1,1,0,0,0,3,0,0,12,0,0,0,0,0,0,0,0,0,0,0,0,0,0,0,0,0,0,0,0,0,0],"split_type":[0,0,0,0,0,0,0,0,0,0,0,0,0,0,0,0,0,0,0,0,0,0,0,0,0,0,0,0,0,0,0,0,0,0,0,0,0,0,0,0,0,0,0,0,0,0,0,0,0,0,0,0,0,0,0,0,0,0,0,0,0,0,0,0,0,0,0,0,0],"sum_hessian":[6.41E2,3.57E2,2.84E2,4.7E1,3.1E2,1.86E2,9.8E1,3.4E1,1.3E1,1.54E2,1.56E2,7.4E1,1.12E2,7.2E1,2.6E1,1.1E1,2E0,5.1E1,1.03E2,3.5E1,1.21E2,3.4E1,4E1,1.04E2,8E0,6.5E1,7E0,2.2E1,4E0,9E0,2E0,7E0,4.4E1,8E1,2.3E1,1E0,3.4E1,8.9E1,3.2E1,2.7E1,7E0,3.5E1,5E0,5.2E1,5.2E1,1.9E1,4.6E1,2E0,5E0,3.8E1,6E0,3.6E1,4.4E1,7E0,1.6E1,3.3E1,1E0,7E1,1.9E1,3.1E1,1E0,7E0,2E1,1E0,5.1E1,2E0,5E1,1.7E1,2.9E1],"tree_param":{"num_deleted":"0","num_feature":"23","num_nodes":"69","size_leaf_vector":"1"}},{"base_weights":[-1.1445219E-3,8.5442476E-2,-1.822867E-1,-3.9653516E-1,1.4188474E-1,-2.3598965E-1,-1.13515764E-1,-4.6187624E-1,-2.0666982E-1,7.2188966E-2,2.780028E-1,-1.0393158E-2,-1.6222799E-1,1.2979147E-4,-1.6093515E-1,-1.6576191E-2,-5.7877136E-5,2.2575878E-4,-8.734007E-3,1.5571335E-1,-6.739661E-2,3.1205073E-1,7.257816E-2,-1.7237447E-1,3.9285305E-3,-1.0932989E-2,-1.1351039E-1,-6.6383267E-3,1.9158837E-1,3.4008022E-2,-1.5332825E-1,4.5124334E-4,3.3922377E-1,-1.7227207E-3,4.3079043E-3,-6.7284615E-3,9.1025295E-6,-5.1993323E-3,1.4592437E-3,1.1121503E-2,5.3337556E-3,2.8802087E-3,-4.3599918E-3,-6.7306347E-3,-4.185141E-4,-6.973568E-3,3.3027434E-3,1.31019605E-2,6.0067824E-3],"categories":[],"categories_nodes":[],"categories_segments":[],"categories_sizes":[],"default_left":[0,0,0,0,0,0,0,0,0,0,0,0,0,0,0,0,0,0,0,0,0,0,0,0,0,0,0,0,0,0,0,0,0,0,0,0,0,0,0,0,0,0,0,0,0,0,0,0,0],"id":16,"left_children":[1,3,5,7,9,11,13,15,17,19,21,-1,23,-1,25,-1,-1,-1,-1,27,29,31,33,35,-1,-1,37,-1,39,41,43,45,47,-1,-1,-1,-1,-1,-1,-1,-1,-1,-1,-1,-1,-1,-1,-1,-1],"loss_changes":[9.812368E0,1.1552581E1,6.7274E-1,3.4202862E-1,3.5351381E0,3.8316536E-1,5.307971E-1,1.2133837E-1,1.5921241E-1,2.9800787E0,8.1933594E-1,0E0,1.8681335E-1,0E0,3.818164E-1,0E0,0E0,0E0,0E0,2.0309854E0,8.519278E-1,8.844843E-1,1.4257774E-1,2.027663E-1,0E0,0E0,3.109424E-1,0E0,5.998807E-1,3.5187566E-1,2.6540005E-1,2.1463154E-1,4.346733E-1,0E0,0E0,0E0,0E0,0E0,0E0,0E0,0E0,0E0,0E0,0E0,0E0,0E0,0E0,0E0,0E0],"parents":[2147483647,0,0,1,1,2,2,3,3,4,4,5,5,6,6,7,7,8,8,9,9,10,10,12,12,14,14,19,19,20,20,21,21,22,22,23,23,26,26,28,28,29,29,30,30,31,31,32,32],"right_children":[2,4,6,8,10,12,14,16,18,20,22,-1,24,-1,26,-1,-1,-1,-1,28,30,32,34,36,-1,-1,38,-1,40,42,44,46,48,-1,-1,-1,-1,-1,-1,-1,-1,-1,-1,-1,-1,-1,-1,-1,-1],"split_conditions":[5.45332E-1,-1.1088245E0,-1.425669E-1,-1.5391359E0,1.14973314E-1,2.2563435E-1,9.879083E-1,6.111027E-1,-1.23207E0,-2.0730202E-1,1.342873E-1,-1.0393158E-2,1.5665131E0,1.2979147E-4,-1.7348821E0,-1.6576191E-2,-5.7877136E-5,2.2575878E-4,-8.734007E-3,-1.1359364E0,7.099398E-2,-1.2831172E0,-1.071288E-1,1.0268973E0,3.9285305E-3,-1.0932989E-2,1.7337976E0,-6.6383267E-3,-1.1793014E0,4.7031677E-1,1.5216129E0,-1.1182069E0,4.88844E-2,-1.7227207E-3,4.3079043E-3,-6.7284615E-3,9.1025295E-6,-5.1993323E-3,1.4592437E-3,1.1121503E-2,5.3337556E-3,2.8802087E-3,-4.3599918E-3,-6.7306347E-3,-4.185141E-4,-6.973568E-3,3.3027434E-3,1.31019605E-2,6.0067824E-3],"split_indices":[10,8,12,10,12,20,10,2,7,7,7,0,0,0,6,0,0,0,0,12,0,10,10,2,0,0,12,0,0,8,0,7,10,0,0,0,0,0,0,0,0,0,0,0,0,0,0,0,0],"split_type":[0,0,0,0,0,0,0,0,0,0,0,0,0,0,0,0,0,0,0,0,0,0,0,0,0,0,0,0,0,0,0,0,0,0,0,0,0,0,0,0,0,0,0,0,0,0,0,0,0],"sum_hessian":[6.22E2,4.21E2,2.01E2,4.3E1,3.78E2,1.1E2,9.1E1,3E1,1.3E1,2.52E2,1.26E2,5.7E1,5.3E1,2.6E1,6.5E1,2.9E1,1E0,2E0,1.1E1,1.58E2,9.4E1,1.07E2,1.9E1,5.2E1,1E0,1.3E1,5.2E1,1.4E1,1.44E2,4.3E1,5.1E1,9E0,9.8E1,5E0,1.4E1,4.7E1,5E0,4.3E1,9E0,3.1E1,1.13E2,3.4E1,9E0,3.9E1,1.2E1,2E0,7E0,7.9E1,1.9E1],"tree_param":{"num_deleted":"0","num_feature":"23","num_nodes":"49","size_leaf_vector":"1"}},{"base_weights":[8.581368E-3,8.66082E-2,-1.5605462E-1,-3.9864784E-1,1.4225718E-1,-2.0162037E-1,-6.998688E-2,-4.4514936E-1,-6.6877246E-2,5.2034605E-2,2.4367757E-1,-1.6956648E-1,-1.0224534E-2,1.811971E-2,-1.3724533E-1,-0E0,-1.5969772E-2,2.476445E-3,-9.90735E-3,1.6200227E-1,-2.6979567E-2,2.8220773E-1,4.3587603E-2,-7.298278E-4,-1.9186044E-1,-3.1253323E-3,8.395724E-2,-9.634022E-3,-8.4857315E-2,2.0777349E-1,-4.7780596E-2,5.0912436E-2,-1.16744034E-1,1.3820134E-1,3.1819853E-1,-7.3008466E-4,4.87348E-3,2.0546543E-3,-6.892592E-3,4.668628E-3,-7.581213E-4,-4.5219255E-3,-0E0,-4.0206616E-3,7.896665E-3,9.71224E-4,-7.860653E-3,-7.267391E-3,4.0808697E-3,-6.8359138E-3,-1.3796748E-3,7.0506493E-3,-1.500051E-3,1.4159213E-2,7.673508E-3],"categories":[],"categories_nodes":[],"categories_segments":[],"categories_sizes":[],"default_left":[0,0,0,0,0,0,0,0,0,0,0,0,0,0,0,0,0,0,0,0,0,0,0,0,0,0,0,0,0,0,0,0,0,0,0,0,0,0,0,0,0,0,0,0,0,0,0,0,0,0,0,0,0,0,0],"id":17,"left_children":[1,3,5,7,9,11,13,15,17,19,21,23,-1,25,27,-1,-1,-1,-1,29,31,33,35,-1,37,-1,39,-1,41,43,45,47,49,51,53,-1,-1,-1,-1,-1,-1,-1,-1,-1,-1,-1,-1,-1,-1,-1,-1,-1,-1,-1,-1],"loss_changes":[8.138438E0,1.1684652E1,7.4974775E-1,5.906801E-1,3.4971924E0,2.6103163E-1,4.5119742E-1,1.780715E-1,2.7443522E-1,1.8230269E0,1.3482418E0,3.0924368E-1,0E0,2.4054949E-1,2.362355E-1,0E0,0E0,0E0,0E0,8.710668E-1,8.6501884E-1,6.736078E-1,2.1038228E-1,0E0,1.4233732E-1,0E0,1.2775652E-1,0E0,1.3434643E-1,4.6739554E-1,2.4937989E-1,1.1395776E0,3.143043E-1,4.124273E-1,8.2568836E-1,0E0,0E0,0E0,0E0,0E0,0E0,0E0,0E0,0E0,0E0,0E0,0E0,0E0,0E0,0E0,0E0,0E0,0E0,0E0,0E0],"parents":[2147483647,0,0,1,1,2,2,3,3,4,4,5,5,6,6,7,7,8,8,9,9,10,10,11,11,13,13,14,14,19,19,20,20,21,21,22,22,24,24,26,26,28,28,29,29,30,30,31,31,32,32,33,33,34,34],"right_children":[2,4,6,8,10,12,14,16,18,20,22,24,-1,26,28,-1,-1,-1,-1,30,32,34,36,-1,38,-1,40,-1,42,44,46,48,50,52,54,-1,-1,-1,-1,-1,-1,-1,-1,-1,-1,-1,-1,-1,-1,-1,-1,-1,-1,-1,-1],"split_conditions":[5.45332E-1,-1.8678942E0,2.6213914E-1,-1.1088245E0,-2.1614984E-1,8.186275E-1,1.1195552E0,-1.6904719E0,-1.1009784E0,-5.334306E-1,1.342873E-1,7.2646207E-1,-1.0224534E-2,3.6823913E-1,-1.0561308E0,-0E0,-1.5969772E-2,2.476445E-3,-9.90735E-3,3.5835184E-2,-3.211651E-1,-8.651369E-1,2.445395E-1,-7.298278E-4,-1.6075794E0,-3.1253323E-3,2.5248113E-1,-9.634022E-3,1.7337976E0,-1.1359364E0,-4.54375E-2,-9.887705E-1,-7.50658E-1,1.0612411E0,1.9627081E-1,-7.3008466E-4,4.87348E-3,2.0546543E-3,-6.892592E-3,4.668628E-3,-7.581213E-4,-4.5219255E-3,-0E0,-4.0206616E-3,7.896665E-3,9.71224E-4,-7.860653E-3,-7.267391E-3,4.0808697E-3,-6.8359138E-3,-1.3796748E-3,7.0506493E-3,-1.500051E-3,1.4159213E-2,7.673508E-3],"split_indices":[10,9,12,8,12,19,10,0,2,0,7,10,0,11,4,0,0,0,0,10,7,9,6,0,0,0,6,0,12,12,2,12,15,15,11,0,0,0,0,0,0,0,0,0,0,0,0,0,0,0,0,0,0,0,0],"split_type":[0,0,0,0,0,0,0,0,0,0,0,0,0,0,0,0,0,0,0,0,0,0,0,0,0,0,0,0,0,0,0,0,0,0,0,0,0,0,0,0,0,0,0,0,0,0,0,0,0,0,0,0,0,0,0],"sum_hessian":[6.31E2,4.29E2,2.02E2,4.3E1,3.86E2,1.3E2,7.2E1,3.7E1,6E0,2.06E2,1.8E2,1E2,3E1,3.1E1,4.1E1,1E0,3.6E1,4E0,2E0,8.6E1,1.2E2,1.5E2,3E1,1.4E1,8.6E1,1.1E1,2E1,9E0,3.2E1,7.1E1,1.5E1,6.4E1,5.6E1,3.2E1,1.18E2,1.8E1,1.2E1,1E0,8.5E1,1.4E1,6E0,2.1E1,1.1E1,3E0,6.8E1,1.1E1,4E0,1.2E1,5.2E1,2.6E1,3E1,2.4E1,8E0,6E1,5.8E1],"tree_param":{"num_deleted":"0","num_feature":"23","num_nodes":"55","size_leaf_vector":"1"}},{"base_weights":[-1.044737E-3,7.861299E-2,-1.628733E-1,-3.5401082E-1,1.381014E-1,-1.313545E-1,-2.4937712E-1,-4.297526E-1,-1.59977E-1,7.488397E-2,2.7326673E-1,-1.6966479E-1,-5.4562148E-2,-1.0464619E-2,-1.3220257E-1,-1.609312E-2,-1.4198715E-3,6.6082245E-3,-2.2970451E-1,1.4470254E-1,-6.1380457E-2,3.0888063E-1,1.6260745E-3,-7.3323324E-2,-2.1062042E-1,4.7101453E-4,-1.0142069E-1,-6.6876067E-3,4.987759E-4,6.9801445E-4,-2.5588125E-1,-5.557375E-3,1.7122559E-1,2.3636311E-2,-1.4657149E-1,-0E0,3.4252608E-1,-3.7023872E-3,3.7972534E-3,7.5797463E-4,-7.6681166E-3,-4.430085E-3,3.0182668E-3,-2.38562E-3,-1.16687585E-2,2.0961706E-3,7.888514E-3,3.0563646E-3,-4.0131737E-3,-8.807407E-3,-3.1448524E-3,3.7273814E-3,-5.4457868E-3,1.3686141E-2,7.6937852E-3],"categories":[],"categories_nodes":[],"categories_segments":[],"categories_sizes":[],"default_left":[0,0,0,0,0,0,0,0,0,0,0,0,0,0,0,0,0,0,0,0,0,0,0,0,0,0,0,0,0,0,0,0,0,0,0,0,0,0,0,0,0,0,0,0,0,0,0,0,0,0,0,0,0,0,0],"id":18,"left_children":[1,3,5,7,9,11,13,15,17,19,21,23,25,-1,27,-1,-1,-1,29,31,33,35,-1,37,39,-1,41,-1,-1,-1,43,-1,45,47,49,51,53,-1,-1,-1,-1,-1,-1,-1,-1,-1,-1,-1,-1,-1,-1,-1,-1,-1,-1],"loss_changes":[8.3358135E0,1.1182608E1,4.948988E-1,6.094661E-1,3.194334E0,4.3587232E-1,2.1441293E-1,3.4886265E-1,4.9474084E-1,2.519024E0,9.162779E-1,3.6471462E-1,1.9092631E-1,0E0,1.8989551E-1,0E0,0E0,0E0,1.325404E-1,1.446636E0,6.6570884E-1,1.0951548E0,0E0,2.2054933E-1,1.694727E-1,0E0,1.8325245E-1,0E0,0E0,0E0,1.3674158E-1,0E0,9.2506313E-1,4.1304967E-1,2.0308512E-1,2.182135E-1,3.6648273E-1,0E0,0E0,0E0,0E0,0E0,0E0,0E0,0E0,0E0,0E0,0E0,0E0,0E0,0E0,0E0,0E0,0E0,0E0],"parents":[2147483647,0,0,1,1,2,2,3,3,4,4,5,5,6,6,7,7,8,8,9,9,10,10,11,11,12,12,14,14,18,18,19,19,20,20,21,21,23,23,24,24,26,26,30,30,32,32,33,33,34,34,35,35,36,36],"right_children":[2,4,6,8,10,12,14,16,18,20,22,24,26,-1,28,-1,-1,-1,30,32,34,36,-1,38,40,-1,42,-1,-1,-1,44,-1,46,48,50,52,54,-1,-1,-1,-1,-1,-1,-1,-1,-1,-1,-1,-1,-1,-1,-1,-1,-1,-1],"split_conditions":[5.45332E-1,-1.8013386E0,8.186275E-1,-1.5370573E0,1.5176478E-1,2.253477E-1,-3.2490116E-2,-2.2622802E0,-1.0515473E0,-2.0730202E-1,2.4815041E-1,9.5690197E-1,1.1195552E0,-1.0464619E-2,2.9893062E-1,-1.609312E-2,-1.4198715E-3,6.6082245E-3,-1.23207E0,-1.1359364E0,2.540483E-1,-1.3221627E0,1.6260745E-3,7.7212644E-1,-1.521233E0,4.7101453E-4,1.2754145E0,-6.6876067E-3,4.987759E-4,6.9801445E-4,-4.2806986E-1,-5.557375E-3,-8.4084487E-1,2.5577545E-1,8.446574E-1,-1.3227268E0,-2.300177E-2,-3.7023872E-3,3.7972534E-3,7.5797463E-4,-7.6681166E-3,-4.430085E-3,3.0182668E-3,-2.38562E-3,-1.16687585E-2,2.0961706E-3,7.888514E-3,3.0563646E-3,-4.0131737E-3,-8.807407E-3,-3.1448524E-3,3.7273814E-3,-5.4457868E-3,1.3686141E-2,7.6937852E-3],"split_indices":[10,9,19,10,12,12,4,9,1,7,7,10,10,0,12,0,0,0,7,12,0,9,0,0,0,0,9,0,0,0,14,0,9,6,0,10,10,0,0,0,0,0,0,0,0,0,0,0,0,0,0,0,0,0,0],"split_type":[0,0,0,0,0,0,0,0,0,0,0,0,0,0,0,0,0,0,0,0,0,0,0,0,0,0,0,0,0,0,0,0,0,0,0,0,0,0,0,0,0,0,0,0,0,0,0,0,0,0,0,0,0,0,0],"sum_hessian":[6.43E2,4.31E2,2.12E2,5.1E1,3.8E2,1.59E2,5.3E1,3.5E1,1.6E1,2.61E2,1.19E2,1.04E2,5.5E1,3.5E1,1.8E1,3.2E1,3E0,2E0,1.4E1,1.73E2,8.8E1,1.02E2,1.7E1,3.3E1,7.1E1,2.2E1,3.3E1,1.3E1,5E0,1E0,1.3E1,1.3E1,1.6E2,4.4E1,4.4E1,1E1,9.2E1,2.9E1,4E0,2E0,6.9E1,3E1,3E0,5E0,8E0,5.4E1,1.06E2,3.1E1,1.3E1,1.3E1,3.1E1,6E0,4E0,6.3E1,2.9E1],"tree_param":{"num_deleted":"0","num_feature":"23","num_nodes":"55","size_leaf_vector":"1"}},{"base_weights":[-9.344753E-3,7.5133614E-2,-1.496741E-1,-3.8211292E-1,1.3168418E-1,-2.1865056E-1,-6.9229364E-2,-1.5779963E-2,-1.7184784E-1,5.1533606E-2,2.1967551E-1,-9.332585E-3,-1.663201E-1,7.2971163E-3,-1.443581E-1,-9.473699E-3,9.640081E-4,1.1617581E-1,-8.432062E-2,2.4892741E-1,3.0811861E-2,-1.8113102E-1,-0E0,-8.921096E-3,9.984869E-3,-6.766243E-3,-2.1871543E-3,-4.768931E-3,1.525389E-1,1.4655251E-2,-1.5745808E-1,3.0762103E-1,1.6833472E-1,-1.190455E-1,2.57152E-1,2.0152777E-3,-6.5896325E-3,2.8315099E-2,-1.3256234E-1,7.903019E-3,2.709476E-3,3.0994804E-3,-3.53792E-3,-6.4308923E-3,2.1916304E-3,1.2576313E-2,7.241856E-3,1.6115239E-3,7.0692017E-3,-7.1668224E-3,1.1029914E-3,1.3557187E-2,-8.1678753E-4,-8.279936E-4,2.5210036E-3,-7.09555E-3,2.3127667E-4],"categories":[],"categories_nodes":[],"categories_segments":[],"categories_sizes":[],"default_left":[0,0,0,0,0,0,0,0,0,0,0,0,0,0,0,0,0,0,0,0,0,0,0,0,0,0,0,0,0,0,0,0,0,0,0,0,0,0,0,0,0,0,0,0,0,0,0,0,0,0,0,0,0,0,0,0,0],"id":19,"left_children":[1,3,5,7,9,11,13,-1,15,17,19,-1,21,23,25,-1,-1,27,29,31,33,35,-1,37,-1,-1,-1,-1,39,41,43,45,47,49,51,-1,-1,53,55,-1,-1,-1,-1,-1,-1,-1,-1,-1,-1,-1,-1,-1,-1,-1,-1,-1,-1],"loss_changes":[7.4869156E0,1.0225381E1,1.2663455E0,4.5027304E-1,2.4348722E0,2.0789576E-1,6.6208655E-1,0E0,3.015228E-1,1.655707E0,8.803692E-1,0E0,1.7302537E-1,2.8617918E-1,1.8678725E-1,0E0,0E0,1.2031485E0,4.5569173E-1,5.53524E-1,8.907389E-1,1.3250709E-1,0E0,2.6696914E-1,0E0,0E0,0E0,0E0,5.6263614E-1,2.3883565E-1,2.3470128E-1,2.510171E-1,2.2661269E-1,2.2704914E-1,4.3340534E-1,0E0,0E0,1.0394822E-1,1.5345252E-1,0E0,0E0,0E0,0E0,0E0,0E0,0E0,0E0,0E0,0E0,0E0,0E0,0E0,0E0,0E0,0E0,0E0,0E0],"parents":[2147483647,0,0,1,1,2,2,3,3,4,4,5,5,6,6,8,8,9,9,10,10,12,12,13,13,14,14,17,17,18,18,19,19,20,20,21,21,23,23,28,28,29,29,30,30,31,31,32,32,33,33,34,34,37,37,38,38],"right_children":[2,4,6,8,10,12,14,-1,16,18,20,-1,22,24,26,-1,-1,28,30,32,34,36,-1,38,-1,-1,-1,-1,40,42,44,46,48,50,52,-1,-1,54,56,-1,-1,-1,-1,-1,-1,-1,-1,-1,-1,-1,-1,-1,-1,-1,-1,-1,-1],"split_conditions":[4.1876617E-1,-2.0688787E0,-1.425669E-1,-1.5424849E0,-2.1614984E-1,2.2563435E-1,1.1195552E0,-1.5779963E-2,1.2020013E-1,-2.0645805E-1,2.0065799E0,-9.332585E-3,6.8923396E-1,1.028725E0,2.5189075E-1,-9.473699E-3,9.640081E-4,-1.1359364E0,7.099398E-2,3.512566E-2,1.6268376E0,-1.6075794E0,-0E0,1.1470916E0,9.984869E-3,-6.766243E-3,-2.1871543E-3,-4.768931E-3,-6.8194634E-1,4.3881178E-1,1.5526977E0,-2.4091212E-1,4.5989323E-3,2.525481E-1,-4.3204966E-1,2.0152777E-3,-6.5896325E-3,2.9893062E-1,1.4394659E0,7.903019E-3,2.709476E-3,3.0994804E-3,-3.53792E-3,-6.4308923E-3,2.1916304E-3,1.2576313E-2,7.241856E-3,1.6115239E-3,7.0692017E-3,-7.1668224E-3,1.1029914E-3,1.3557187E-2,-8.1678753E-4,-8.279936E-4,2.5210036E-3,-7.09555E-3,2.3127667E-4],"split_indices":[10,9,12,10,12,20,10,0,5,8,15,0,0,9,6,0,0,12,0,14,13,0,0,8,0,0,0,0,0,5,0,10,12,6,8,0,0,12,12,0,0,0,0,0,0,0,0,0,0,0,0,0,0,0,0,0,0],"split_type":[0,0,0,0,0,0,0,0,0,0,0,0,0,0,0,0,0,0,0,0,0,0,0,0,0,0,0,0,0,0,0,0,0,0,0,0,0,0,0,0,0,0,0,0,0,0,0,0,0,0,0,0,0,0,0,0,0],"sum_hessian":[6.28E2,3.92E2,2.36E2,4.2E1,3.5E2,1.25E2,1.11E2,3E1,1.2E1,1.85E2,1.65E2,6.1E1,6.4E1,5.5E1,5.6E1,8E0,4E0,1.26E2,5.9E1,1.42E2,2.3E1,5.9E1,5E0,5.3E1,2E0,3.3E1,2.3E1,1.5E1,1.11E2,2.5E1,3.4E1,7.9E1,6.3E1,1.4E1,9E0,1E0,5.8E1,4.1E1,1.2E1,5.4E1,5.7E1,1.6E1,9E0,3.1E1,3E0,4.9E1,3E1,1.5E1,4.8E1,9E0,5E0,6E0,3E0,1.8E1,2.3E1,8E0,4E0],"tree_param":{"num_deleted":"0","num_feature":"23","num_nodes":"57","size_leaf_vector":"1"}},{"base_weights":[-8.635146E-3,6.607756E-2,-1.6321665E-1,-3.2287592E-1,1.12042546E-1,-9.122912E-3,-1.3633467E-1,-3.6962426E-1,-1.002686E-1,-8.053804E-2,1.515269E-1,-1.8436494E-1,-8.86587E-2,-1.3973271E-2,-0E0,1.5775356E-3,-9.20049E-3,4.760416E-2,-1.8762264E-1,1.9508988E-1,9.241731E-4,-3.189579E-3,-7.574943E-3,2.2264617E-3,-9.998153E-2,8.224392E-3,-6.385831E-3,7.960515E-4,-7.3430995E-3,7.154631E-2,2.2749105E-1,3.5601143E-2,-8.227955E-3,-4.6141753E-3,-3.9856706E-2,-5.227321E-3,1.5387463E-3,3.9797146E-3,-3.3563755E-3,1.1493859E-2,5.3731045E-3,3.1058514E-3,-3.0744437E-3,8.100978E-4,-3.5544925E-3],"categories":[],"categories_nodes":[],"categories_segments":[],"categories_sizes":[],"default_left":[0,0,0,0,0,0,0,0,0,0,0,0,0,0,0,0,0,0,0,0,0,0,0,0,0,0,0,0,0,0,0,0,0,0,0,0,0,0,0,0,0,0,0,0,0],"id":20,"left_children":[1,3,5,7,9,-1,11,13,15,17,19,21,23,-1,-1,-1,-1,25,27,29,31,-1,-1,-1,33,-1,35,-1,-1,37,39,41,-1,-1,43,-1,-1,-1,-1,-1,-1,-1,-1,-1,-1],"loss_changes":[7.5270987E0,7.872788E0,4.636035E-1,3.8132143E-1,3.0175467E0,0E0,3.3860564E-1,3.756137E-1,2.8769684E-1,9.536381E-1,2.1287594E0,1.8627453E-1,1.6748846E-1,0E0,0E0,0E0,0E0,3.4378222E-1,2.0083797E-1,9.604311E-1,6.1050224E-1,0E0,0E0,0E0,1.3677514E-1,0E0,2.0394592E-1,0E0,0E0,4.099314E-1,1.3653183E0,4.5454276E-1,0E0,0E0,1.3770296E-1,0E0,0E0,0E0,0E0,0E0,0E0,0E0,0E0,0E0,0E0],"parents":[2147483647,0,0,1,1,2,2,3,3,4,4,6,6,7,7,8,8,9,9,10,10,11,11,12,12,17,17,18,18,19,19,20,20,24,24,26,26,29,29,30,30,31,31,34,34],"right_children":[2,4,6,8,10,-1,12,14,16,18,20,22,24,-1,-1,-1,-1,26,28,30,32,-1,-1,-1,34,-1,36,-1,-1,38,40,42,-1,-1,44,-1,-1,-1,-1,-1,-1,-1,-1,-1,-1],"split_conditions":[5.45332E-1,-1.8013386E0,-7.3123026E-1,-1.1088245E0,-8.783961E-1,-9.122912E-3,2.2563435E-1,7.772196E-1,-4.2806986E-1,-1.5005271E-1,1.9133553E-2,9.7266495E-1,-4.3204966E-1,-1.3973271E-2,-0E0,1.5775356E-3,-9.20049E-3,-1.165486E0,-7.368669E-1,-9.1237134E-1,9.440828E-1,-3.189579E-3,-7.574943E-3,2.2264617E-3,7.036367E-1,8.224392E-3,-1.0109137E0,7.960515E-4,-7.3430995E-3,1.0138962E0,-5.45952E-1,3.512566E-2,-8.227955E-3,-4.6141753E-3,1.2401739E0,-5.227321E-3,1.5387463E-3,3.9797146E-3,-3.3563755E-3,1.1493859E-2,5.3731045E-3,3.1058514E-3,-3.0744437E-3,8.100978E-4,-3.5544925E-3],"split_indices":[10,9,12,8,12,0,20,12,14,0,8,10,8,0,0,0,0,0,14,9,9,0,0,0,12,0,1,0,0,0,10,14,0,0,10,0,0,0,0,0,0,0,0,0,0],"split_type":[0,0,0,0,0,0,0,0,0,0,0,0,0,0,0,0,0,0,0,0,0,0,0,0,0,0,0,0,0,0,0,0,0,0,0,0,0,0,0,0,0,0,0,0,0],"sum_hessian":[6.48E2,4.37E2,2.11E2,4.5E1,3.92E2,4.2E1,1.69E2,3.6E1,9E0,6.6E1,3.26E2,8.1E1,8.8E1,3.3E1,3E0,5E0,4E0,3E1,3.6E1,2.52E2,7.4E1,2.3E1,5.8E1,5E0,8.3E1,6E0,2.4E1,3E0,3.3E1,5.4E1,1.98E2,6.6E1,8E0,5.2E1,3.1E1,6E0,1.8E1,4.4E1,1E1,8.1E1,1.17E2,4.7E1,1.9E1,1.5E1,1.6E1],"tree_param":{"num_deleted":"0","num_feature":"23","num_nodes":"45","size_leaf_vector":"1"}},{"base_weights":[-0E0,7.3875666E-2,-1.3762848E-1,-3.3225974E-1,1.2984665E-1,-2.0968905E-1,-7.468253E-2,-4.048596E-1,-1.6452546E-1,7.480851E-2,2.5095165E-1,-9.52401E-3,-1.3287419E-1,-1.4900434E-2,-1.3793439E-1,-1.4582021E-2,-0E0,-1.0657292E-2,1.9698149E-4,1.3950925E-1,-3.7444737E-2,2.9337543E-1,6.18856E-2,-2.9714059E-3,-7.125029E-3,-6.650455E-2,1.2574174E-3,-9.264727E-2,-7.240162E-3,-4.2475807E-3,1.6359667E-1,-1.5235627E-1,1.9776843E-2,-1.6076064E-2,3.2780358E-1,5.858269E-3,-9.606804E-4,-3.4566151E-3,1.3238442E-3,-5.6880843E-3,-1.2543454E-3,2.3579614E-3,7.1595837E-3,-6.0440195E-3,3.318479E-4,2.6645625E-3,-5.575109E-3,2.4738542E-3,-6.213747E-3,9.936867E-3,1.6303068E-2],"categories":[],"categories_nodes":[],"categories_segments":[],"categories_sizes":[],"default_left":[0,0,0,0,0,0,0,0,0,0,0,0,0,0,0,0,0,0,0,0,0,0,0,0,0,0,0,0,0,0,0,0,0,0,0,0,0,0,0,0,0,0,0,0,0,0,0,0,0,0,0],"id":21,"left_children":[1,3,5,7,9,11,13,15,17,19,21,-1,23,25,27,-1,-1,-1,-1,29,31,33,35,-1,-1,37,-1,39,-1,-1,41,43,45,47,49,-1,-1,-1,-1,-1,-1,-1,-1,-1,-1,-1,-1,-1,-1,-1,-1],"loss_changes":[6.620514E0,9.671389E0,9.7999525E-1,4.7028732E-1,2.4287896E0,4.0636492E-1,4.524089E-1,1.5998507E-1,4.730559E-1,1.9027566E0,8.6365366E-1,0E0,1.165185E-1,1.8106219E-1,1.2703192E-1,0E0,0E0,0E0,0E0,1.0739493E0,6.457302E-1,1.0352116E0,2.4235119E-1,0E0,0E0,1.2779681E-1,0E0,1.2821135E-1,0E0,0E0,5.53246E-1,1.2570661E-1,6.6074234E-1,1.7659053E-1,2.3849106E-1,0E0,0E0,0E0,0E0,0E0,0E0,0E0,0E0,0E0,0E0,0E0,0E0,0E0,0E0,0E0,0E0],"parents":[2147483647,0,0,1,1,2,2,3,3,4,4,5,5,6,6,7,7,8,8,9,9,10,10,12,12,13,13,14,14,19,19,20,20,21,21,22,22,25,25,27,27,30,30,31,31,32,32,33,33,34,34],"right_children":[2,4,6,8,10,12,14,16,18,20,22,-1,24,26,28,-1,-1,-1,-1,30,32,34,36,-1,-1,38,-1,40,-1,-1,42,44,46,48,50,-1,-1,-1,-1,-1,-1,-1,-1,-1,-1,-1,-1,-1,-1,-1,-1],"split_conditions":[4.8736116E-1,-1.8013386E0,-5.067199E-1,-1.5391359E0,1.5176478E-1,2.2563435E-1,1.1587607E0,-2.2622802E0,8.6595364E-2,-2.0730202E-1,2.0424195E-2,-9.52401E-3,1.0048475E0,6.7318535E-1,9.036847E-1,-1.4582021E-2,-0E0,-1.0657292E-2,1.9698149E-4,-1.1359364E0,-6.0581416E-1,-1.3221627E0,-1.9921044E-1,-2.9714059E-3,-7.125029E-3,1.4762573E0,1.2574174E-3,-1.672903E-1,-7.240162E-3,-4.2475807E-3,-8.4084487E-1,4.758766E-1,5.8973974E-1,-1.3041923E0,2.108743E-1,5.858269E-3,-9.606804E-4,-3.4566151E-3,1.3238442E-3,-5.6880843E-3,-1.2543454E-3,2.3579614E-3,7.1595837E-3,-6.0440195E-3,3.318479E-4,2.6645625E-3,-5.575109E-3,2.4738542E-3,-6.213747E-3,9.936867E-3,1.6303068E-2],"split_indices":[10,9,13,10,12,20,10,9,5,7,7,0,9,11,15,0,0,0,0,12,1,9,15,0,0,12,0,13,0,0,9,7,7,10,9,0,0,0,0,0,0,0,0,0,0,0,0,0,0,0,0],"split_type":[0,0,0,0,0,0,0,0,0,0,0,0,0,0,0,0,0,0,0,0,0,0,0,0,0,0,0,0,0,0,0,0,0,0,0,0,0,0,0,0,0,0,0,0,0,0,0,0,0,0,0],"sum_hessian":[6.48E2,4.22E2,2.26E2,5E1,3.72E2,1.03E2,1.23E2,3.3E1,1.7E1,2.58E2,1.14E2,5.4E1,4.9E1,6.5E1,5.8E1,3.2E1,1E0,9E0,8E0,1.64E2,9.4E1,9.2E1,2.2E1,3.2E1,1.7E1,3.3E1,3.2E1,3.8E1,2E1,1.3E1,1.51E2,3.1E1,6.3E1,9E0,8.3E1,1E1,1.2E1,2.6E1,7E0,1.5E1,2.3E1,4.7E1,1.04E2,2.8E1,3E0,4.9E1,1.4E1,6E0,3E0,6.7E1,1.6E1],"tree_param":{"num_deleted":"0","num_feature":"23","num_nodes":"51","size_leaf_vector":"1"}},{"base_weights":[-3.7240852E-3,-3.884178E-1,1.9501405E-2,-1.4379984E-2,-2.4387373E-3,1.16806254E-1,-1.2346796E-1,3.9312273E-2,2.0422345E-1,-1.8523727E-1,-5.4014426E-2,1.3189006E-1,-2.1921601E-2,2.3049428E-1,3.2694075E-2,-1.9571504E-1,1.3856748E-3,1.9090729E-2,-1.18208356E-1,1.6609435E-1,-1.0056989E-1,-1.5972258E-1,6.3635516E-3,9.67143E-2,2.6943952E-1,-3.2222641E-3,9.6203126E-2,-8.552634E-3,-1.4155026E-1,-2.5063844E-3,5.4686885E-2,-7.211302E-2,-8.291286E-3,-1.9699496E-3,6.5278094E-3,-7.094081E-3,-0E0,4.2546564E-3,-6.6019273E-3,3.468723E-3,-1.9703875E-3,-3.0550896E-3,5.2503785E-3,1.2001305E-2,5.7005044E-3,5.3206314E-3,-6.2822714E-4,-5.460477E-3,2.6127116E-3,8.7576074E-4,7.834849E-3,-3.6505556E-3,2.53991E-4],"categories":[],"categories_nodes":[],"categories_segments":[],"categories_sizes":[],"default_left":[0,0,0,0,0,0,0,0,0,0,0,0,0,0,0,0,0,0,0,0,0,0,0,0,0,0,0,0,0,0,0,0,0,0,0,0,0,0,0,0,0,0,0,0,0,0,0,0,0,0,0,0,0],"id":22,"left_children":[1,3,5,-1,-1,7,9,11,13,15,17,19,21,23,25,27,-1,29,31,33,35,37,39,41,43,-1,45,-1,47,-1,49,51,-1,-1,-1,-1,-1,-1,-1,-1,-1,-1,-1,-1,-1,-1,-1,-1,-1,-1,-1,-1,-1],"loss_changes":[5.7262554E0,1.7005825E-1,8.374889E0,0E0,0E0,2.3921933E0,1.0057051E0,1.1065962E0,7.171688E-1,3.2758617E-1,5.6471336E-1,6.4782107E-1,4.7094512E-1,6.77155E-1,2.0782033E-1,2.322998E-1,0E0,1.8337095E-1,2.9087353E-1,3.3974123E-1,1.1975321E-1,2.0777053E-1,5.792514E-1,3.7405112E-1,7.3063946E-1,0E0,1.2899947E-1,0E0,2.2104144E-1,0E0,1.7497158E-1,1.347478E-1,0E0,0E0,0E0,0E0,0E0,0E0,0E0,0E0,0E0,0E0,0E0,0E0,0E0,0E0,0E0,0E0,0E0,0E0,0E0,0E0,0E0],"parents":[2147483647,0,0,1,1,2,2,5,5,6,6,7,7,8,8,9,9,10,10,11,11,12,12,13,13,14,14,15,15,17,17,18,18,19,19,20,20,21,21,22,22,23,23,24,24,26,26,28,28,30,30,31,31],"right_children":[2,4,6,-1,-1,8,10,12,14,16,18,20,22,24,26,28,-1,30,32,34,36,38,40,42,44,-1,46,-1,48,-1,50,52,-1,-1,-1,-1,-1,-1,-1,-1,-1,-1,-1,-1,-1,-1,-1,-1,-1,-1,-1,-1,-1],"split_conditions":[-1.5391359E0,-2.2622802E0,4.2598364E-1,-1.4379984E-2,-2.4387373E-3,-2.1614984E-1,-1.425669E-1,-5.127075E-1,1.9133553E-2,1.4421742E0,1.0529811E0,3.5835184E-2,-9.887705E-1,-9.594951E-1,2.5222108E-1,2.2563435E-1,1.3856748E-3,3.6823913E-1,8.186275E-1,-1.4144019E0,4.9230418E-1,-2.882069E-1,-5.4484546E-1,-1.2700586E0,2.6508552E-1,-3.2222641E-3,1.8952417E-1,-8.552634E-3,6.8923396E-1,-2.5063844E-3,8.5868496E-1,1.7337976E0,-8.291286E-3,-1.9699496E-3,6.5278094E-3,-7.094081E-3,-0E0,4.2546564E-3,-6.6019273E-3,3.468723E-3,-1.9703875E-3,-3.0550896E-3,5.2503785E-3,1.2001305E-2,5.7005044E-3,5.3206314E-3,-6.2822714E-4,-5.460477E-3,2.6127116E-3,8.7576074E-4,7.834849E-3,-3.6505556E-3,2.53991E-4],"split_indices":[10,9,10,0,0,12,12,0,8,0,10,10,12,9,9,20,0,11,19,2,9,0,8,5,11,0,14,0,0,0,9,12,0,0,0,0,0,0,0,0,0,0,0,0,0,0,0,0,0,0,0,0,0],"split_type":[0,0,0,0,0,0,0,0,0,0,0,0,0,0,0,0,0,0,0,0,0,0,0,0,0,0,0,0,0,0,0,0,0,0,0,0,0,0,0,0,0,0,0,0,0,0,0,0,0,0,0,0,0],"sum_hessian":[6.34E2,3.5E1,5.99E2,3.2E1,3E0,3.57E2,2.42E2,1.91E2,1.66E2,1.26E2,1.16E2,7.6E1,1.15E2,1.43E2,2.3E1,1.21E2,5E0,5.4E1,6.2E1,6.7E1,9E0,1.9E1,9.6E1,3.4E1,1.09E2,7E0,1.6E1,6E1,6.1E1,1.4E1,4E1,4.7E1,1.5E1,5E0,6.2E1,4E0,5E0,1E0,1.8E1,3.9E1,5.7E1,7E0,2.7E1,6.2E1,4.7E1,1.1E1,5E0,5.8E1,3E0,3.6E1,4E0,3.4E1,1.3E1],"tree_param":{"num_deleted":"0","num_feature":"23","num_nodes":"53","size_leaf_vector":"1"}},{"base_weights":[1.0659295E-3,-3.4420544E-1,2.691752E-2,-1.3166112E-2,-1.2689699E-1,1.307671E-1,-1.06990546E-1,-0E0,-7.432997E-3,-1.3042813E-2,1.7741948E-1,-1.46928E-1,-1.1913751E-2,2.4297903E-1,-6.966903E-2,1.9776389E-1,-1.857751E-2,-9.6532125E-3,-1.2758777E-1,1.4919825E-2,-8.986755E-3,1.0832123E-2,6.8121875E-4,-1.1833781E-1,1.5900858E-2,7.760083E-2,2.3538536E-1,2.018843E-3,-3.125239E-3,4.8562107E-3,-1.484947E-1,4.099483E-2,-4.360208E-3,-0E0,-6.801966E-3,-2.4165376E-3,3.9472473E-3,7.2934325E-3,9.902312E-4,1.0607481E-2,5.1517086E-3,4.2122733E-3,-2.098217E-3,-5.564203E-3,-3.7526884E-4,-5.2460853E-4,3.3759885E-3],"categories":[],"categories_nodes":[],"categories_segments":[],"categories_sizes":[],"default_left":[0,0,0,0,0,0,0,0,0,0,0,0,0,0,0,0,0,0,0,0,0,0,0,0,0,0,0,0,0,0,0,0,0,0,0,0,0,0,0,0,0,0,0,0,0,0,0],"id":23,"left_children":[1,3,5,-1,7,9,11,-1,-1,13,15,17,19,21,23,25,27,-1,29,31,-1,-1,-1,33,35,37,39,-1,-1,41,43,45,-1,-1,-1,-1,-1,-1,-1,-1,-1,-1,-1,-1,-1,-1,-1],"loss_changes":[5.8330398E0,1.9418621E-1,8.527065E0,0E0,1.1118455E-1,2.337894E0,9.9722147E-1,0E0,0E0,1.2476015E0,1.066145E0,3.7422562E-1,5.654037E-1,1.8849331E-1,3.1083384E-1,1.0149708E0,1.4839917E-1,0E0,4.7648358E-1,2.7028784E-1,0E0,0E0,0E0,4.2523134E-1,2.3412862E-1,3.5118726E-1,9.595728E-1,0E0,0E0,1.9275177E-1,1.8916106E-1,2.1058565E-1,0E0,0E0,0E0,0E0,0E0,0E0,0E0,0E0,0E0,0E0,0E0,0E0,0E0,0E0,0E0],"parents":[2147483647,0,0,1,1,2,2,4,4,5,5,6,6,9,9,10,10,11,11,12,12,13,13,14,14,15,15,16,16,18,18,19,19,23,23,24,24,25,25,26,26,29,29,30,30,31,31],"right_children":[2,4,6,-1,8,10,12,-1,-1,14,16,18,20,22,24,26,28,-1,30,32,-1,-1,-1,34,36,38,40,-1,-1,42,44,46,-1,-1,-1,-1,-1,-1,-1,-1,-1,-1,-1,-1,-1,-1,-1],"split_conditions":[-2.0688787E0,-2.2622802E0,1.9133553E-2,-1.3166112E-2,-7.256384E-1,-7.3123026E-1,2.9893062E-1,-0E0,-7.432997E-3,-1.165486E0,1.1000279E0,-9.887705E-1,2.1759372E0,4.2022637E-1,-8.783961E-1,-8.651369E-1,-4.3204966E-1,-9.6532125E-3,1.342873E-1,2.3216927E0,-8.986755E-3,1.0832123E-2,6.8121875E-4,-1.5005271E-1,5.545336E-1,-3.46468E-1,-4.3502823E-1,2.018843E-3,-3.125239E-3,-5.23069E-1,1.3972741E0,4.3281275E-1,-4.360208E-3,-0E0,-6.801966E-3,-2.4165376E-3,3.9472473E-3,7.2934325E-3,9.902312E-4,1.0607481E-2,5.1517086E-3,4.2122733E-3,-2.098217E-3,-5.564203E-3,-3.7526884E-4,-5.2460853E-4,3.3759885E-3],"split_indices":[9,9,8,0,2,12,12,0,0,0,11,12,19,11,12,9,8,0,7,15,0,0,0,0,0,4,7,0,0,0,0,11,0,0,0,0,0,0,0,0,0,0,0,0,0,0,0],"split_type":[0,0,0,0,0,0,0,0,0,0,0,0,0,0,0,0,0,0,0,0,0,0,0,0,0,0,0,0,0,0,0,0,0,0,0,0,0,0,0,0,0,0,0,0,0,0,0],"sum_hessian":[6.54E2,4.4E1,6.1E2,3.7E1,7E0,3.44E2,2.66E2,3E0,4E0,8.4E1,2.6E2,1.86E2,8E1,1.4E1,7E1,2.36E2,2.4E1,2.1E1,1.65E2,7.3E1,7E0,1E1,4E0,4.5E1,2.5E1,5.8E1,1.78E2,1.1E1,1.3E1,2.2E1,1.43E2,6.3E1,1E1,1.8E1,2.7E1,1.3E1,1.2E1,1.4E1,4.4E1,9.8E1,8E1,8E0,1.4E1,1.32E2,1.1E1,3.1E1,3.2E1],"tree_param":{"num_deleted":"0","num_feature":"23","num_nodes":"47","size_leaf_vector":"1"}},{"base_weights":[-1.1082975E-3,6.42655E-2,-1.19268715E-1,-2.957055E-1,1.0884314E-1,-1.7393774E-1,-5.656077E-2,-3.5735574E-1,-1.3534807E-1,3.7803125E-2,1.8737374E-1,-7.884322E-3,-1.1395549E-1,-2.6924617E-3,-1.3004501E-1,-1.3370909E-2,-0E0,-8.706962E-3,2.230273E-3,9.8861836E-2,-7.610562E-2,2.0712662E-1,1.031555E-2,7.9046097E-4,-1.409404E-1,-2.4585921E-2,5.537028E-3,-1.4437665E-1,2.6333595E-3,-4.469864E-3,1.2470245E-1,-0E0,-1.5510921E-1,1.6430584E-1,3.0303493E-1,-3.4977195E-3,1.2861611E-1,2.2235685E-3,-5.215577E-3,-0E0,-3.7348813E-3,-7.993771E-3,-2.9619727E-3,5.3150584E-3,-5.927687E-4,2.143952E-3,-2.5456392E-3,-6.209125E-3,2.9205398E-3,7.734383E-3,3.0555362E-3,1.169176E-2,8.564347E-4,7.214459E-3,-3.016139E-3],"categories":[],"categories_nodes":[],"categories_segments":[],"categories_sizes":[],"default_left":[0,0,0,0,0,0,0,0,0,0,0,0,0,0,0,0,0,0,0,0,0,0,0,0,0,0,0,0,0,0,0,0,0,0,0,0,0,0,0,0,0,0,0,0,0,0,0,0,0,0,0,0,0,0,0],"id":24,"left_children":[1,3,5,7,9,11,13,15,17,19,21,-1,23,25,27,-1,-1,-1,-1,29,31,33,35,-1,37,39,-1,41,-1,-1,43,45,47,49,51,-1,53,-1,-1,-1,-1,-1,-1,-1,-1,-1,-1,-1,-1,-1,-1,-1,-1,-1,-1],"loss_changes":[4.9491515E0,6.6327925E0,7.455323E-1,3.2799482E-1,2.0170722E0,2.985685E-1,4.1965365E-1,2.8269482E-1,3.9225742E-1,1.3732876E0,5.8185196E-1,0E0,2.3583919E-1,2.231972E-1,1.5707129E-1,0E0,0E0,0E0,0E0,7.759255E-1,4.0921566E-1,5.171976E-1,2.7648026E-1,0E0,1.0614133E-1,1.177616E-1,0E0,1.5807122E-1,0E0,0E0,4.6545482E-1,1.6949695E-1,2.0976686E-1,4.2686057E-1,3.4499836E-1,0E0,2.1345197E-1,0E0,0E0,0E0,0E0,0E0,0E0,0E0,0E0,0E0,0E0,0E0,0E0,0E0,0E0,0E0,0E0,0E0,0E0],"parents":[2147483647,0,0,1,1,2,2,3,3,4,4,5,5,6,6,7,7,8,8,9,9,10,10,12,12,13,13,14,14,19,19,20,20,21,21,22,22,24,24,25,25,27,27,30,30,31,31,32,32,33,33,34,34,36,36],"right_children":[2,4,6,8,10,12,14,16,18,20,22,-1,24,26,28,-1,-1,-1,-1,30,32,34,36,-1,38,40,-1,42,-1,-1,44,46,48,50,52,-1,54,-1,-1,-1,-1,-1,-1,-1,-1,-1,-1,-1,-1,-1,-1,-1,-1,-1,-1],"split_conditions":[4.8736116E-1,-1.8678942E0,-1.425669E-1,-1.5424849E0,-2.1614984E-1,2.2563435E-1,1.2814579E0,-2.2622802E0,3.7400833E-1,-2.0645805E-1,1.493813E0,-7.884322E-3,7.2646207E-1,1.0219437E0,2.0865362E0,-1.3370909E-2,-0E0,-8.706962E-3,2.230273E-3,-1.1727278E0,7.099398E-2,9.979684E-1,2.4269216E0,7.9046097E-4,-1.6075794E0,1.1470916E0,5.537028E-3,-1.0411472E0,2.6333595E-3,-4.469864E-3,2.816787E-1,-5.2559394E-1,1.542336E0,-6.017865E-1,2.4815041E-1,-3.4977195E-3,7.740704E-1,2.2235685E-3,-5.215577E-3,-0E0,-3.7348813E-3,-7.993771E-3,-2.9619727E-3,5.3150584E-3,-5.927687E-4,2.143952E-3,-2.5456392E-3,-6.209125E-3,2.9205398E-3,7.734383E-3,3.0555362E-3,1.169176E-2,8.564347E-4,7.214459E-3,-3.016139E-3],"split_indices":[10,9,12,10,12,20,10,9,5,8,3,0,10,9,20,0,0,0,0,12,0,12,13,0,0,8,0,0,0,0,2,1,0,10,7,0,9,0,0,0,0,0,0,0,0,0,0,0,0,0,0,0,0,0,0],"split_type":[0,0,0,0,0,0,0,0,0,0,0,0,0,0,0,0,0,0,0,0,0,0,0,0,0,0,0,0,0,0,0,0,0,0,0,0,0,0,0,0,0,0,0,0,0,0,0,0,0,0,0,0,0,0,0],"sum_hessian":[6.37E2,4.1E2,2.27E2,4.4E1,3.66E2,1.19E2,1.08E2,3E1,1.4E1,1.94E2,1.72E2,6.1E1,5.8E1,6.4E1,4.4E1,2.8E1,2E0,9E0,5E0,1.27E2,6.7E1,1.54E2,1.8E1,9E0,4.9E1,5.8E1,6E0,4.2E1,2E0,1.2E1,1.15E2,3.5E1,3.2E1,1.1E2,4.4E1,9E0,9E0,1E0,4.8E1,4.6E1,1.2E1,1.5E1,2.7E1,9.7E1,1.8E1,1.9E1,1.6E1,3E1,2E0,6.1E1,4.9E1,3.9E1,5E0,7E0,2E0],"tree_param":{"num_deleted":"0","num_feature":"23","num_nodes":"55","size_leaf_vector":"1"}},{"base_weights":[-1.9645018E-3,5.7584625E-2,-1.1102073E-1,-2.7406362E-1,9.8690525E-2,-9.08715E-2,-7.927677E-3,-3.3501732E-1,-1.1328357E-1,4.320243E-2,2.0406605E-1,-1.307664E-1,-8.467379E-3,-1.26295965E-2,-1.1131272E-3,-7.5297914E-3,2.170227E-3,1.7659344E-1,-1.8788124E-2,2.4763358E-1,-0E0,-5.8623096E-3,-8.064413E-2,3.0395694E-2,-8.742775E-2,-7.194835E-2,1.9971144E-1,-1.4496848E-1,2.7391706E-2,2.722328E-1,8.2505074E-5,-5.6778127E-3,9.928891E-2,-1.058193E-1,2.124107E-3,2.6242106E-4,9.568523E-3,